{
  "full_pred_dir": "/home/wangzhe/DroneP_VG/project_records/results/predictions/fullimage_groundingdino_finetuned_headplus_20260318",
  "sw_pred_dir": "/home/wangzhe/DroneP_VG/project_records/results/predictions/sw_grid_20260318_cfg02",
  "gt_dir": "/home/wangzhe/DroneP_VG/visdrone_test_100/annotations",
  "output_pred_dir": "/home/wangzhe/DroneP_VG/project_records/results/predictions/fusion_stageA_hybrid_sl_rl_finetuned_headplus_exp9cmp_20260318",
  "sl_epochs": 60,
  "rl_epochs": 40,
  "lr": 0.002,
  "rl_lr": 0.001,
  "hidden_dim": 64,
  "rl_hidden_dim": 32,
  "rl_scale": 1.5,
  "rl_entropy_coef": 0.001,
  "rl_reward_mode": "acc05_map_proxy_gain",
  "rl_reward_acc05_weight": 0.7,
  "rl_reward_threshold": 0.35,
  "rl_reward_nms_iou": 0.6,
  "rl_early_stop_patience": 8,
  "rl_early_stop_min_delta": 0.0001,
  "best_checkpoint": "/home/wangzhe/DroneP_VG/project_records/results/metrics/lightweight_optimization/external_calibrator_stageA_hybrid_sl_rl_finetuned_headplus_exp9cmp_20260318_best_rl.pt",
  "best_rl_epoch": 25,
  "best_val_objective": 0.36886927571030453,
  "best_val_acc05": 0.37163533346665373,
  "best_val_map_proxy": 0.36241514094548966,
  "weight_decay": 5e-05,
  "nms_iou": 0.7,
  "score_threshold": 0.1,
  "search_min_threshold": 0.1,
  "search_max_threshold": 0.6,
  "search_threshold_step": 0.02,
  "search_nms_candidates": [
    0.4,
    0.5,
    0.6,
    0.7
  ],
  "progress_log": "/home/wangzhe/DroneP_VG/project_records/results/metrics/lightweight_optimization/external_calibrator_stageA_hybrid_sl_rl_finetuned_headplus_exp9cmp_20260318_progress.tsv",
  "split": {
    "train_stems": [
      "002_VisDrone2019-DET-train_0000279_03601_d_0000600",
      "003_VisDrone2019-DET-test_0000120_03922_d_0000100",
      "006_VisDrone2019-DET-train_9999962_00000_d_0000070",
      "007_VisDrone2019-DET-test_9999963_00000_d_0000074",
      "008_VisDrone2019-DET-train_0000222_05666_d_0000018",
      "009_VisDrone2019-DET-test_0000073_01275_d_0000002",
      "010_VisDrone2019-DET-train_9999962_00000_d_0000150",
      "011_VisDrone2019-DET-train_9999945_00000_d_0000008",
      "013_VisDrone2019-DET-train_0000308_00401_d_0000307",
      "016_VisDrone2019-DET-train_9999999_00189_d_0000078",
      "017_VisDrone2019-DET-train_9999999_00279_d_0000122",
      "019_VisDrone2019-DET-train_0000334_01177_d_0000027",
      "020_VisDrone2019-DET-train_9999998_00304_d_0000257",
      "021_VisDrone2019-DET-train_0000002_00448_d_0000015",
      "022_VisDrone2019-DET-train_9999965_00000_d_0000035",
      "023_VisDrone2019-DET-train_9999942_00000_d_0000164",
      "024_VisDrone2019-DET-train_0000003_00231_d_0000016",
      "025_VisDrone2019-DET-test_9999963_00000_d_0000058",
      "027_VisDrone2019-DET-train_9999956_00000_d_0000097",
      "031_VisDrone2019-DET-val_0000276_00601_d_0000510",
      "033_VisDrone2019-DET-train_9999962_00000_d_0000142",
      "034_VisDrone2019-DET-train_9999940_00000_d_0000002",
      "035_VisDrone2019-DET-train_9999982_00000_d_0000075",
      "037_VisDrone2019-DET-train_9999998_00107_d_0000085",
      "038_VisDrone2019-DET-train_0000007_05999_d_0000038",
      "039_VisDrone2019-DET-train_9999974_00000_d_0000016",
      "040_VisDrone2019-DET-train_0000008_00889_d_0000039",
      "041_VisDrone2019-DET-train_0000008_01999_d_0000040",
      "042_VisDrone2019-DET-train_0000008_02499_d_0000041",
      "043_VisDrone2019-DET-train_9999951_00000_d_0000059",
      "044_VisDrone2019-DET-test_0000127_00002_d_0000119",
      "045_VisDrone2019-DET-test_9999941_00000_d_0000004",
      "046_VisDrone2019-DET-train_9999967_00000_d_0000004",
      "047_VisDrone2019-DET-train_9999994_00000_d_0000097",
      "048_VisDrone2019-DET-val_0000330_02201_d_0000811",
      "049_VisDrone2019-DET-train_0000008_02999_d_0000042",
      "050_VisDrone2019-DET-train_9999950_00000_d_0000031",
      "051_VisDrone2019-DET-val_0000330_04001_d_0000820",
      "052_VisDrone2019-DET-train_0000008_03499_d_0000043",
      "053_VisDrone2019-DET-test_9999973_00000_d_0000076",
      "056_VisDrone2019-DET-train_9999982_00000_d_0000060",
      "057_VisDrone2019-DET-train_9999966_00000_d_0000102",
      "059_VisDrone2019-DET-test_9999973_00000_d_0000108",
      "060_VisDrone2019-DET-train_0000008_03999_d_0000044",
      "061_VisDrone2019-DET-train_9999955_00000_d_0000159",
      "062_VisDrone2019-DET-train_9999981_00000_d_0000017",
      "063_VisDrone2019-DET-train_0000008_04499_d_0000045",
      "064_VisDrone2019-DET-train_9999951_00000_d_0000261",
      "066_VisDrone2019-DET-train_0000010_00569_d_0000056",
      "067_VisDrone2019-DET-train_9999945_00000_d_0000013",
      "068_VisDrone2019-DET-train_9999982_00000_d_0000173",
      "069_VisDrone2019-DET-train_0000257_00249_d_0000043",
      "071_VisDrone2019-DET-train_0000010_05149_d_0000057",
      "073_VisDrone2019-DET-train_9999999_00440_d_0000195",
      "074_VisDrone2019-DET-train_9999984_00000_d_0000082",
      "075_VisDrone2019-DET-train_9999998_00151_d_0000127",
      "077_VisDrone2019-DET-val_0000356_04705_d_0000653",
      "079_VisDrone2019-DET-train_9999969_00000_d_0000044",
      "080_VisDrone2019-DET-train_9999955_00000_d_0000062",
      "081_VisDrone2019-DET-test_9999952_00000_d_0000169",
      "083_VisDrone2019-DET-val_0000291_02001_d_0000878",
      "084_VisDrone2019-DET-train_9999998_00031_d_0000024",
      "086_VisDrone2019-DET-train_9999982_00000_d_0000200",
      "088_VisDrone2019-DET-test_9999938_00000_d_0000365",
      "091_VisDrone2019-DET-train_0000013_00465_d_0000067",
      "092_VisDrone2019-DET-train_9999972_00000_d_0000032",
      "093_VisDrone2019-DET-train_0000016_00420_d_0000068",
      "097_VisDrone2019-DET-test_9999952_00000_d_0000059",
      "099_VisDrone2019-DET-train_0000084_00281_d_0000002",
      "100_VisDrone2019-DET-train_0000030_00754_d_0000036"
    ],
    "val_stems": [
      "001_VisDrone2019-DET-train_0000002_00005_d_0000014",
      "026_VisDrone2019-DET-train_0000007_04999_d_0000036",
      "028_VisDrone2019-DET-test_9999973_00000_d_0000049",
      "030_VisDrone2019-DET-train_9999951_00000_d_0000168",
      "054_VisDrone2019-DET-train_0000260_00441_d_0000104",
      "058_VisDrone2019-DET-test_9999941_00000_d_0000006",
      "065_VisDrone2019-DET-train_9999955_00000_d_0000181",
      "072_VisDrone2019-DET-train_0000010_05291_d_0000058",
      "078_VisDrone2019-DET-train_9999945_00000_d_0000047",
      "085_VisDrone2019-DET-train_9999966_00000_d_0000054",
      "089_VisDrone2019-DET-train_9999937_00000_d_0000182",
      "090_VisDrone2019-DET-train_0000124_02088_d_0000121",
      "094_VisDrone2019-DET-test_9999938_00000_d_0000472",
      "096_VisDrone2019-DET-train_0000261_00001_d_0000120",
      "098_VisDrone2019-DET-train_0000016_01352_d_0000069"
    ],
    "test_stems": [
      "004_VisDrone2019-DET-train_9999990_00000_d_0000025",
      "005_VisDrone2019-DET-test_9999976_00000_d_0000013",
      "012_VisDrone2019-DET-train_9999951_00000_d_0000334",
      "014_VisDrone2019-DET-train_9999951_00000_d_0000079",
      "015_VisDrone2019-DET-test_9999938_00000_d_0000209",
      "018_VisDrone2019-DET-test_9999986_00000_d_0000021",
      "029_VisDrone2019-DET-train_9999998_00308_d_0000261",
      "032_VisDrone2019-DET-train_0000007_05499_d_0000037",
      "036_VisDrone2019-DET-test_9999952_00000_d_0000232",
      "055_VisDrone2019-DET-test_9999938_00000_d_0000453",
      "070_VisDrone2019-DET-train_9999953_00000_d_0000227",
      "076_VisDrone2019-DET-train_9999998_00405_d_0000357",
      "082_VisDrone2019-DET-train_9999998_00395_d_0000347",
      "087_VisDrone2019-DET-train_9999943_00000_d_0000059",
      "095_VisDrone2019-DET-test_9999973_00000_d_0000105"
    ]
  },
  "num_stems": 100,
  "num_samples": 8206,
  "num_train_samples": 6059,
  "num_val_samples": 1328,
  "num_test_samples": 819,
  "num_output_boxes": 5542,
  "train_time_sec": 19.347497940063477,
  "test_cls_loss": 0.6464253664016724,
  "test_cls_acc": 0.6910867094993591,
  "test_det_acc05": 0.31189710610932475,
  "feature_mean": [
    0.3402443528175354,
    0.584254801273346,
    3.578235626220703,
    3.5822792053222656,
    7.160514831542969,
    -0.00404352555051446,
    0.310502290725708,
    0.4051295816898346,
    0.37981128692626953
  ],
  "feature_std": [
    0.1003979966044426,
    0.49289068579673767,
    0.7836478352546692,
    0.6823447942733765,
    1.3431181907653809,
    0.5961796641349792,
    0.12425821274518967,
    0.20205004513263702,
    0.27526021003723145
  ],
  "state_dict": {
    "supervised.net.0.weight": [
      [
        0.3770800232887268,
        0.3582558333873749,
        0.013442646712064743,
        0.290232390165329,
        0.0010406760266050696,
        0.17597778141498566,
        -0.14320263266563416,
        0.23903410136699677,
        0.2639390528202057
      ],
      [
        -0.35138097405433655,
        0.2542658746242523,
        0.005110530182719231,
        0.21264411509037018,
        -0.006608544383198023,
        0.09430035948753357,
        0.04565197974443436,
        0.17479203641414642,
        0.04111245274543762
      ],
      [
        -0.08332043141126633,
        0.038472749292850494,
        -0.1344839334487915,
        -0.008965328335762024,
        -0.11239852756261826,
        0.22856405377388,
        -0.24835190176963806,
        -0.12813755869865417,
        -0.11850249767303467
      ],
      [
        -0.1411573439836502,
        -0.04021567106246948,
        -0.2969965934753418,
        0.342176616191864,
        -0.24672400951385498,
        0.2683865427970886,
        -0.03588277846574783,
        -0.0656154602766037,
        0.1291106790304184
      ],
      [
        -0.03749382495880127,
        0.27339228987693787,
        -0.01775595359504223,
        -0.14961089193820953,
        0.03769528865814209,
        -0.14912858605384827,
        0.2572636008262634,
        0.3294444978237152,
        0.13429273664951324
      ],
      [
        -0.2519676983356476,
        0.1165466159582138,
        0.08972989022731781,
        0.29717785120010376,
        -0.1273178607225418,
        -0.38800111413002014,
        -0.12420197576284409,
        -0.37190955877304077,
        0.3610732853412628
      ],
      [
        0.21501073241233826,
        0.1673898696899414,
        0.19701455533504486,
        -0.09999459981918335,
        0.32089272141456604,
        -0.12680603563785553,
        -0.02433810569345951,
        -0.10686782002449036,
        0.10783164948225021
      ],
      [
        -0.22657813131809235,
        0.03490544855594635,
        -0.05877012759447098,
        0.3466295897960663,
        -0.1606850028038025,
        -0.2565961480140686,
        -0.19409476220607758,
        0.31240564584732056,
        0.0005550349596887827
      ],
      [
        0.31409817934036255,
        -0.2596081793308258,
        -0.3782707154750824,
        -0.2980878949165344,
        -0.2700651288032532,
        0.08107206970453262,
        0.02538195252418518,
        0.24519707262516022,
        -0.16535264253616333
      ],
      [
        -0.32725903391838074,
        0.07739262282848358,
        -0.1231841892004013,
        0.29063546657562256,
        -0.03140965849161148,
        0.11751691997051239,
        -0.3065207600593567,
        -0.2705051302909851,
        0.12136367708444595
      ],
      [
        0.16391490399837494,
        -0.16052332520484924,
        0.2767733931541443,
        0.2452150285243988,
        -0.17480403184890747,
        -0.08301404118537903,
        0.212091863155365,
        -0.016007907688617706,
        -0.21454623341560364
      ],
      [
        -0.42436474561691284,
        -0.1528092324733734,
        0.08264847844839096,
        0.02772809937596321,
        -0.20903342962265015,
        -0.057272881269454956,
        -0.25028279423713684,
        -0.3712075650691986,
        -0.17909125983715057
      ],
      [
        -0.21444988250732422,
        -0.3109380900859833,
        0.3864966332912445,
        -0.027636747807264328,
        0.1400778442621231,
        -0.24364227056503296,
        -0.1721053272485733,
        -0.036423128098249435,
        0.13075600564479828
      ],
      [
        -0.3886725902557373,
        -0.14648333191871643,
        -0.10164731740951538,
        0.1241462379693985,
        -0.008455449715256691,
        -0.058109574019908905,
        -0.17840780317783356,
        -0.3223665654659271,
        -0.12601859867572784
      ],
      [
        0.00795743428170681,
        -0.268595814704895,
        0.3808685541152954,
        -0.03907836973667145,
        0.38035446405410767,
        0.21306408941745758,
        -0.23082008957862854,
        0.24598920345306396,
        0.018698589876294136
      ],
      [
        -0.0455673523247242,
        -0.34777069091796875,
        -0.2820025682449341,
        0.08523359894752502,
        -0.036690302193164825,
        0.19676697254180908,
        -0.22682087123394012,
        0.21794463694095612,
        -0.18449273705482483
      ],
      [
        -0.18318186700344086,
        -0.059581343084573746,
        0.14138461649417877,
        0.3796558976173401,
        0.33542200922966003,
        -0.3742161989212036,
        0.16839654743671417,
        -0.274227112531662,
        -0.03040819615125656
      ],
      [
        -0.35684967041015625,
        0.2707967758178711,
        -0.2538328468799591,
        0.220442533493042,
        0.12544909119606018,
        0.06200259178876877,
        -0.12924279272556305,
        0.34621933102607727,
        0.11103623360395432
      ],
      [
        0.1066170334815979,
        -0.34949782490730286,
        0.17968934774398804,
        -0.07704595476388931,
        -0.1224692240357399,
        0.3353099822998047,
        -0.003966482821851969,
        -0.1601017415523529,
        -0.16551005840301514
      ],
      [
        0.051245223730802536,
        0.19107583165168762,
        -0.07096470147371292,
        -0.1675662398338318,
        -0.09687329083681107,
        -0.24512125551700592,
        0.005737456493079662,
        0.1555851846933365,
        -0.2611521780490875
      ],
      [
        0.002035430632531643,
        0.19393956661224365,
        0.0013229793403297663,
        -0.15556344389915466,
        0.11974281817674637,
        0.10719135403633118,
        0.22969447076320648,
        -0.07698448747396469,
        -0.05050821602344513
      ],
      [
        0.16216261684894562,
        -0.12048181146383286,
        0.013566938228905201,
        0.194443479180336,
        0.3813928961753845,
        0.09320510923862457,
        -0.02804170362651348,
        0.1228431835770607,
        0.05844976752996445
      ],
      [
        -0.0023269422817975283,
        0.10997403413057327,
        -0.35556361079216003,
        -0.1221209317445755,
        0.23949545621871948,
        0.059934087097644806,
        0.00438616843894124,
        -0.2576828896999359,
        -0.2118116170167923
      ],
      [
        -0.2410004884004593,
        -0.18065252900123596,
        0.15527376532554626,
        0.132205531001091,
        0.18538396060466766,
        -0.24277842044830322,
        -0.16200776398181915,
        0.00037310164771042764,
        0.37189140915870667
      ],
      [
        0.1727999746799469,
        -0.16900017857551575,
        0.24358317255973816,
        -0.07786181569099426,
        -0.11695609241724014,
        0.35493946075439453,
        -0.05931096524000168,
        -0.15420135855674744,
        -0.34890687465667725
      ],
      [
        0.322169691324234,
        0.14622801542282104,
        0.09539872407913208,
        -0.25887030363082886,
        -0.34688013792037964,
        -0.24472354352474213,
        0.1399431973695755,
        0.04263020679354668,
        0.3781498968601227
      ],
      [
        0.27036017179489136,
        0.011676936410367489,
        -0.03684937208890915,
        -0.3162159025669098,
        -0.33071622252464294,
        -0.2901863753795624,
        0.03928469121456146,
        -0.14626646041870117,
        -0.06262446939945221
      ],
      [
        -0.3202940821647644,
        -0.0034412823151797056,
        -0.18513363599777222,
        -0.162214457988739,
        0.1593416929244995,
        -0.08135702461004257,
        0.3387789726257324,
        -0.12466983497142792,
        -0.3549848794937134
      ],
      [
        0.02573877014219761,
        -0.2744225263595581,
        -0.06977155059576035,
        -0.3537960350513458,
        0.1974918097257614,
        -0.17027655243873596,
        0.045202650129795074,
        0.052607566118240356,
        0.3305645287036896
      ],
      [
        -0.36903688311576843,
        0.3012082278728485,
        -0.12424150854349136,
        0.2550256848335266,
        0.3887132704257965,
        -0.12231571227312088,
        0.13384665548801422,
        -0.18562178313732147,
        -0.22453400492668152
      ],
      [
        0.21999751031398773,
        -0.40417763590812683,
        0.23958519101142883,
        0.13842174410820007,
        0.32006800174713135,
        -0.02635549008846283,
        -0.23398980498313904,
        0.13226479291915894,
        0.24596872925758362
      ],
      [
        -0.2766138017177582,
        -0.10905720293521881,
        -0.17099235951900482,
        -0.06601259857416153,
        -0.14976075291633606,
        -0.09028831124305725,
        -0.07176140695810318,
        -0.26584547758102417,
        0.26861265301704407
      ],
      [
        0.37945249676704407,
        -0.11817246675491333,
        0.02450687438249588,
        -0.13961386680603027,
        -0.25193992257118225,
        -0.24472197890281677,
        0.04730553179979324,
        -0.17878279089927673,
        -0.12718930840492249
      ],
      [
        0.0562254972755909,
        -0.17815887928009033,
        -0.07860799878835678,
        -0.06690150499343872,
        -0.07201863080263138,
        -0.0525558777153492,
        -0.12347704917192459,
        -0.2034263163805008,
        0.32125982642173767
      ],
      [
        -0.23189494013786316,
        0.07222328335046768,
        -0.16979031264781952,
        0.052380748093128204,
        0.27356967329978943,
        0.07673538476228714,
        -0.33735570311546326,
        0.047834210097789764,
        0.19819416105747223
      ],
      [
        0.19885891675949097,
        0.09953262656927109,
        0.4199531674385071,
        -0.007995347492396832,
        0.1525266170501709,
        -0.12971724569797516,
        -0.06027042120695114,
        0.27602842450141907,
        0.18083477020263672
      ],
      [
        -0.32563596963882446,
        -0.15996786952018738,
        -0.20400995016098022,
        -0.3253616392612457,
        -0.23979373276233673,
        -0.05424726381897926,
        0.3635224997997284,
        0.1912209391593933,
        -0.3539395332336426
      ],
      [
        -0.38643574714660645,
        0.028688397258520126,
        -0.19983744621276855,
        0.052402470260858536,
        0.22783078253269196,
        -0.2025560438632965,
        0.06625916808843613,
        -0.07120071351528168,
        -0.059699784964323044
      ],
      [
        -0.26555806398391724,
        -0.20612460374832153,
        -0.27936896681785583,
        -0.11379452049732208,
        0.33764970302581787,
        -0.21277044713497162,
        -0.28831538558006287,
        0.02534281462430954,
        -0.00812439527362585
      ],
      [
        0.24504446983337402,
        0.21692216396331787,
        0.21491476893424988,
        -0.33539366722106934,
        0.05052623897790909,
        0.24402056634426117,
        -0.10914331674575806,
        -0.16040074825286865,
        0.20683321356773376
      ],
      [
        -0.04567956551909447,
        -0.2710960805416107,
        -0.24853496253490448,
        -0.012630049139261246,
        0.18225397169589996,
        0.14393797516822815,
        0.005447255913168192,
        -0.1990872025489807,
        -0.26930925250053406
      ],
      [
        0.01635589450597763,
        0.2638361155986786,
        0.2133917361497879,
        -0.14989382028579712,
        -0.014606299810111523,
        -0.2181052416563034,
        -0.12688365578651428,
        0.0743073970079422,
        0.17222683131694794
      ],
      [
        0.21206814050674438,
        -0.23621009290218353,
        0.16390126943588257,
        -0.2849116325378418,
        0.06819618493318558,
        0.21810342371463776,
        -0.051956042647361755,
        0.38746604323387146,
        -0.31816768646240234
      ],
      [
        -0.062049224972724915,
        0.13623613119125366,
        -0.028393059968948364,
        -0.04468811675906181,
        -0.09964019805192947,
        0.2830234467983246,
        0.048712704330682755,
        0.016159918159246445,
        -0.1888817548751831
      ],
      [
        -0.390290230512619,
        0.11509540677070618,
        0.045773014426231384,
        -0.18169911205768585,
        -0.1380053013563156,
        0.1574815958738327,
        0.1644686460494995,
        0.15748731791973114,
        -0.049512796103954315
      ],
      [
        -0.220285564661026,
        -0.4117957651615143,
        -0.11335267126560211,
        -0.1440068632364273,
        0.14413605630397797,
        -0.041323959827423096,
        -0.10475166887044907,
        0.19819709658622742,
        0.20029215514659882
      ],
      [
        0.15385138988494873,
        -0.20092731714248657,
        -0.12251048535108566,
        0.22693641483783722,
        -0.16637519001960754,
        -0.2881709933280945,
        -0.0429706871509552,
        -0.1559346318244934,
        -0.1981692761182785
      ],
      [
        0.10841058194637299,
        0.2775118350982666,
        0.03467334806919098,
        -0.08859928697347641,
        -0.3309080898761749,
        -0.12397148460149765,
        0.20677416026592255,
        0.27882540225982666,
        -0.05958017334342003
      ],
      [
        -0.23112091422080994,
        0.20992790162563324,
        -0.27123937010765076,
        0.25935059785842896,
        -0.11460619419813156,
        -0.043480291962623596,
        -0.01936987414956093,
        0.11227314174175262,
        -0.10992589592933655
      ],
      [
        0.18091891705989838,
        0.04825739189982414,
        0.20527391135692596,
        0.26763004064559937,
        -0.21515537798404694,
        -0.29841557145118713,
        0.36624589562416077,
        0.2167792171239853,
        -0.277986615896225
      ],
      [
        0.09537175297737122,
        -0.45492786169052124,
        -0.20039376616477966,
        0.05219464749097824,
        0.14310483634471893,
        0.16082660853862762,
        -0.06093188747763634,
        0.2348194718360901,
        0.17383885383605957
      ],
      [
        -0.11149822175502777,
        -0.0728241577744484,
        0.12373004108667374,
        0.060917146503925323,
        -0.21649141609668732,
        0.19370271265506744,
        -0.150512233376503,
        -0.20947064459323883,
        -0.22982248663902283
      ],
      [
        0.44162896275520325,
        0.1527784913778305,
        0.4089850187301636,
        0.2337004393339157,
        0.3526405692100525,
        0.07660703361034393,
        -0.10714474320411682,
        0.26175665855407715,
        -0.21621674299240112
      ],
      [
        -0.14805589616298676,
        -0.17751064896583557,
        0.09649442136287689,
        0.09610423445701599,
        -0.13767139613628387,
        -0.13265500962734222,
        -0.016916312277317047,
        -0.13931076228618622,
        -0.24557499587535858
      ],
      [
        0.29364150762557983,
        -0.1533687710762024,
        0.4081265926361084,
        0.3024427890777588,
        0.18692590296268463,
        0.2319129854440689,
        0.00813553761690855,
        0.10908569395542145,
        -0.056045569479465485
      ],
      [
        0.1239725649356842,
        0.04747667536139488,
        0.4101012647151947,
        -0.07228250056505203,
        -0.052148591727018356,
        0.0314817875623703,
        -0.08552980422973633,
        0.1275867372751236,
        0.31902390718460083
      ],
      [
        0.3646654188632965,
        0.03824230656027794,
        -0.1965651512145996,
        -0.21832911670207977,
        -0.04994441941380501,
        0.017333917319774628,
        -0.003124779090285301,
        -0.2342076152563095,
        0.15507356822490692
      ],
      [
        -0.17229558527469635,
        -0.29016393423080444,
        -0.24002783000469208,
        0.25446489453315735,
        -0.29592829942703247,
        0.30980217456817627,
        -0.06202144920825958,
        -0.018539952114224434,
        0.28143513202667236
      ],
      [
        -0.11809580773115158,
        0.24032917618751526,
        0.18490861356258392,
        -0.33524495363235474,
        0.07488460838794708,
        0.0011693642009049654,
        0.2030269354581833,
        0.031214537099003792,
        0.09840480238199234
      ],
      [
        -0.08337617665529251,
        -0.1482713520526886,
        0.3649946451187134,
        0.10865205526351929,
        0.011191419325768948,
        -0.24643336236476898,
        0.0252180565148592,
        -0.15181675553321838,
        0.3562527298927307
      ],
      [
        -0.14755672216415405,
        -0.07700395584106445,
        -0.020662080496549606,
        0.08383387327194214,
        0.3616853356361389,
        0.08938389271497726,
        0.1371517926454544,
        0.31415578722953796,
        0.3083420395851135
      ],
      [
        -0.2323838472366333,
        -0.1473793089389801,
        0.17609792947769165,
        0.021776732057332993,
        0.20867212116718292,
        -0.1420971155166626,
        -0.275504469871521,
        0.008969172835350037,
        0.04969402030110359
      ],
      [
        0.04849739372730255,
        0.20331445336341858,
        0.19269734621047974,
        0.40510454773902893,
        0.02428770810365677,
        -0.3678618371486664,
        -0.27007007598876953,
        -0.3192790746688843,
        -0.2112501710653305
      ],
      [
        -0.2670530676841736,
        -0.21163734793663025,
        -0.3091426193714142,
        -0.19470272958278656,
        -0.32753702998161316,
        -0.21613538265228271,
        0.2121945321559906,
        0.40461716055870056,
        -0.18617986142635345
      ]
    ],
    "supervised.net.0.bias": [
      0.03317881003022194,
      0.2894285023212433,
      -0.19820937514305115,
      -0.2039600908756256,
      0.10511483252048492,
      -0.20124846696853638,
      0.17267680168151855,
      0.37442728877067566,
      0.0957990288734436,
      0.17386494576931,
      -0.10140148550271988,
      0.07505078613758087,
      -0.03840230405330658,
      0.16851763427257538,
      0.24228166043758392,
      0.3037359118461609,
      -0.11683201044797897,
      0.09805512428283691,
      -0.10028418898582458,
      -0.29847338795661926,
      -0.0966864600777626,
      -0.16406923532485962,
      0.1776351034641266,
      -0.01025780662894249,
      -0.06170611083507538,
      0.2562743127346039,
      -0.2709026038646698,
      -0.0007654128130525351,
      -0.08641539514064789,
      -0.17756778001785278,
      -0.1473255157470703,
      -0.09887711703777313,
      0.30480700731277466,
      0.34529948234558105,
      0.17615440487861633,
      -0.0853123888373375,
      -0.1293184459209442,
      0.3892771005630493,
      0.1912565380334854,
      0.07831933349370956,
      0.030992543324828148,
      -0.2899291217327118,
      -0.1764688342809677,
      0.340887188911438,
      0.028543129563331604,
      -0.07043682783842087,
      -0.32983723282814026,
      -0.22627992928028107,
      0.07173973321914673,
      -0.24897678196430206,
      0.04493144154548645,
      0.1199650689959526,
      -0.20991234481334686,
      0.04295581206679344,
      -0.11300638318061829,
      -0.028171349316835403,
      0.21121074259281158,
      0.22341835498809814,
      -0.12037036567926407,
      -0.20483659207820892,
      -0.3242233395576477,
      -0.05693035572767258,
      -0.20378784835338593,
      -0.012645339593291283
    ],
    "supervised.net.2.weight": [
      [
        0.1289868950843811,
        -0.23885205388069153,
        0.06285980343818665,
        0.013495206832885742,
        -0.175294429063797,
        -0.14097939431667328,
        0.1581306904554367,
        -0.09819447249174118,
        0.05828646942973137,
        -0.13838599622249603,
        0.06425325572490692,
        -0.14285162091255188,
        0.017076486721634865,
        -0.0608096718788147,
        0.11963903903961182,
        0.060433246195316315,
        -0.14994576573371887,
        -0.15937121212482452,
        0.07620564848184586,
        0.05499620363116264,
        -0.04514574259519577,
        0.14762035012245178,
        -0.07193084061145782,
        -0.021020760759711266,
        0.15349635481834412,
        0.0993092954158783,
        0.1174938902258873,
        -0.09467166662216187,
        0.08215513825416565,
        -0.21233725547790527,
        0.06184234097599983,
        -0.002184937009587884,
        0.18321098387241364,
        0.055173300206661224,
        -0.2062690556049347,
        0.19264571368694305,
        -0.10550040006637573,
        -0.10929340869188309,
        -0.1837509721517563,
        0.07589344680309296,
        0.03470001369714737,
        0.011956426315009594,
        0.0050379931926727295,
        0.006489007268100977,
        -0.15092027187347412,
        0.05163342505693436,
        -0.1193544939160347,
        -0.06853645294904709,
        -0.18332119286060333,
        -0.026478031650185585,
        0.12088808417320251,
        0.07247766107320786,
        0.11695419251918793,
        0.046642571687698364,
        0.11783495545387268,
        0.19214296340942383,
        0.18696856498718262,
        0.05164206400513649,
        -0.11375978589057922,
        0.020055366680026054,
        -0.05483219027519226,
        -0.18003322184085846,
        -0.17135748267173767,
        -0.16970933973789215
      ]
    ],
    "supervised.net.2.bias": [
      0.08219943195581436
    ],
    "reinforcement.net.0.weight": [
      [
        -0.24789753556251526,
        0.12600217759609222,
        0.08869443833827972,
        -0.26753389835357666,
        0.07635501027107239,
        -0.03243137151002884,
        0.13176356256008148,
        0.17036543786525726,
        -0.3084408640861511
      ],
      [
        0.30840301513671875,
        0.2700254023075104,
        0.11984027922153473,
        -0.29279395937919617,
        -0.11856182664632797,
        -0.10175493359565735,
        -0.08486345410346985,
        0.1894513964653015,
        0.11570172011852264
      ],
      [
        0.24444036185741425,
        -0.10624314099550247,
        0.11459148675203323,
        0.11039277166128159,
        -0.26963308453559875,
        -0.304989218711853,
        -0.15926629304885864,
        0.22047096490859985,
        -0.29359760880470276
      ],
      [
        -0.2711888253688812,
        0.1701985001564026,
        0.18198393285274506,
        0.2701355516910553,
        -0.23121638596057892,
        -0.227713942527771,
        0.17690441012382507,
        0.27892735600471497,
        0.1862110197544098
      ],
      [
        0.047830741852521896,
        0.10194138437509537,
        0.29775986075401306,
        -0.20882266759872437,
        -0.15460091829299927,
        0.2149856984615326,
        -0.2243061363697052,
        -0.1667265146970749,
        0.23427875339984894
      ],
      [
        0.11333023756742477,
        0.10732649266719818,
        -0.1261344999074936,
        0.009999611414968967,
        0.314560204744339,
        -0.2038421481847763,
        0.012730026617646217,
        0.16170257329940796,
        -0.2387467622756958
      ],
      [
        0.3059368133544922,
        -0.14822544157505035,
        -0.06427807360887527,
        -0.08308278769254684,
        -0.20119158923625946,
        -0.30517691373825073,
        0.17908982932567596,
        0.08240284025669098,
        -0.29065459966659546
      ],
      [
        -0.2050909548997879,
        0.30787062644958496,
        0.11819539219141006,
        0.12184625118970871,
        -0.1922937035560608,
        -0.12915661931037903,
        -0.04892847314476967,
        -0.05883347615599632,
        -0.20731687545776367
      ],
      [
        0.02182328887283802,
        0.04428569972515106,
        -0.050946757197380066,
        0.04187249392271042,
        -0.13713248074054718,
        0.07602652162313461,
        0.10893770307302475,
        -0.15651465952396393,
        -0.3095971643924713
      ],
      [
        0.1518191248178482,
        0.0581171028316021,
        -0.144587904214859,
        0.2968142330646515,
        -0.12587980926036835,
        0.20067580044269562,
        0.14568084478378296,
        -0.2555556893348694,
        0.19074313342571259
      ],
      [
        -0.3025727868080139,
        -0.19838863611221313,
        -0.038480423390865326,
        -0.2086225152015686,
        0.3378734290599823,
        -0.05859684199094772,
        0.14743885397911072,
        -0.3049147427082062,
        0.18954584002494812
      ],
      [
        -0.08656910806894302,
        -0.25536370277404785,
        0.062429334968328476,
        0.17358766496181488,
        0.2989545464515686,
        -0.19998204708099365,
        -0.14873628318309784,
        0.06978514790534973,
        0.08770709484815598
      ],
      [
        0.11841631680727005,
        0.16980279982089996,
        -0.09001278877258301,
        0.16935665905475616,
        0.22837699949741364,
        -0.08178015798330307,
        0.21721398830413818,
        0.15299184620380402,
        0.27655524015426636
      ],
      [
        -0.16526253521442413,
        -0.14151936769485474,
        -0.07442420721054077,
        0.022707348689436913,
        0.17752937972545624,
        -0.16631734371185303,
        0.14545755088329315,
        -0.09836509078741074,
        0.17733043432235718
      ],
      [
        -0.013882269151508808,
        -0.2689582407474518,
        -0.16166740655899048,
        -0.21831879019737244,
        0.14779163897037506,
        -0.2016420066356659,
        -0.021452520042657852,
        0.05914152413606644,
        -0.1607789844274521
      ],
      [
        0.09472636133432388,
        -0.3063254952430725,
        -0.22231167554855347,
        -0.28602972626686096,
        -0.08583437651395798,
        -0.11354588717222214,
        0.053661853075027466,
        -0.06162608787417412,
        0.15071897208690643
      ],
      [
        0.3119567930698395,
        0.12067143619060516,
        -0.13420400023460388,
        -0.3031167984008789,
        0.11517151445150375,
        -0.169950470328331,
        0.1714451014995575,
        0.2294083535671234,
        0.12904153764247894
      ],
      [
        0.2891130745410919,
        0.2927839457988739,
        0.05592147260904312,
        -0.21966767311096191,
        0.2737237811088562,
        -0.1360405534505844,
        -0.1347571164369583,
        0.25395575165748596,
        0.23441247642040253
      ],
      [
        0.10090140253305435,
        0.012922792695462704,
        -0.2566748857498169,
        -0.01404731348156929,
        0.29723450541496277,
        0.07110743224620819,
        0.03511330112814903,
        -0.06839171797037125,
        -0.10534507781267166
      ],
      [
        0.1821175068616867,
        0.028368357568979263,
        0.19752463698387146,
        -0.0708765983581543,
        0.1279134750366211,
        0.11822318285703659,
        0.035930145531892776,
        0.19417399168014526,
        0.19470851123332977
      ],
      [
        0.2909946143627167,
        0.23589563369750977,
        -0.07457266747951508,
        -0.27301836013793945,
        0.06213071569800377,
        0.003843362210318446,
        -0.07280949503183365,
        -0.05122165009379387,
        0.016170328482985497
      ],
      [
        0.23359502851963043,
        0.08897404372692108,
        -0.1130027174949646,
        -0.12794125080108643,
        -0.07858159393072128,
        -0.11682786792516708,
        0.2887565493583679,
        0.17394033074378967,
        0.2865070104598999
      ],
      [
        0.005915279500186443,
        0.05318864434957504,
        0.10329555720090866,
        -0.31211239099502563,
        0.020442714914679527,
        -0.026847371831536293,
        -0.18385455012321472,
        -0.25240904092788696,
        0.29131725430488586
      ],
      [
        0.261238157749176,
        0.1384131908416748,
        0.3214710056781769,
        -0.11783552914857864,
        -0.03920019418001175,
        0.13644163310527802,
        -0.036343514919281006,
        -0.0629180297255516,
        -0.27328550815582275
      ],
      [
        0.07806025445461273,
        -0.18344883620738983,
        -0.0015429144259542227,
        0.3083423674106598,
        -0.11466284096240997,
        -0.10296416282653809,
        0.18295975029468536,
        -0.11335749179124832,
        -0.021426286548376083
      ],
      [
        0.3195584714412689,
        -0.14980226755142212,
        -0.24670098721981049,
        -0.18681439757347107,
        -0.0992259681224823,
        -0.16915255784988403,
        -0.17884139716625214,
        0.1348240077495575,
        0.05259983241558075
      ],
      [
        -0.10041069984436035,
        -0.23705334961414337,
        -0.09071952104568481,
        -0.12652501463890076,
        -0.09517338126897812,
        -0.2792583107948303,
        0.05950866639614105,
        -0.2225266695022583,
        -0.23703646659851074
      ],
      [
        -0.257135272026062,
        0.13028091192245483,
        -0.20973464846611023,
        -0.13598321378231049,
        0.2477046549320221,
        0.158626988530159,
        0.17208078503608704,
        -0.3071417212486267,
        -0.22132916748523712
      ],
      [
        -0.11435077339410782,
        0.25817710161209106,
        0.04387283697724342,
        -0.23567143082618713,
        0.009583988226950169,
        -0.2401268631219864,
        -0.06584703922271729,
        -0.08924197405576706,
        0.26920250058174133
      ],
      [
        0.10948576033115387,
        -0.06758742034435272,
        0.07351498305797577,
        -0.08115903288125992,
        0.1467052847146988,
        0.14614629745483398,
        0.1032365933060646,
        -0.13270753622055054,
        0.291355699300766
      ],
      [
        -0.02623901329934597,
        -0.10634390264749527,
        0.18600185215473175,
        0.24783924221992493,
        0.30769646167755127,
        0.07741455733776093,
        -0.08979175239801407,
        0.14449895918369293,
        0.2613755762577057
      ],
      [
        -0.30470341444015503,
        -0.03298177197575569,
        -0.2068464756011963,
        0.05565089359879494,
        0.12554852664470673,
        -0.05675318464636803,
        -0.032859254628419876,
        0.13307622075080872,
        -0.041516028344631195
      ]
    ],
    "reinforcement.net.0.bias": [
      -0.2641049921512604,
      0.28537726402282715,
      -0.18412330746650696,
      -0.01890920102596283,
      0.012321814894676208,
      -0.001655686879530549,
      -0.3300711214542389,
      0.1328456997871399,
      -0.17129278182983398,
      -0.14729799330234528,
      0.1006355881690979,
      -0.15505878627300262,
      -0.1711525321006775,
      -0.08790053427219391,
      -0.12439756095409393,
      -0.15514187514781952,
      -0.06803365796804428,
      0.08527722209692001,
      -0.24531492590904236,
      -0.21656104922294617,
      -0.016440322622656822,
      0.06779691576957703,
      0.2021058201789856,
      -0.21076995134353638,
      0.08555339276790619,
      0.20866604149341583,
      0.16310518980026245,
      -0.31816330552101135,
      -0.14329855144023895,
      -0.26675307750701904,
      -0.18588323891162872,
      0.164739191532135
    ],
    "reinforcement.net.2.weight": [
      [
        -0.010513775050640106,
        0.09624453634023666,
        -0.08554165810346603,
        0.040026817470788956,
        -0.08938606083393097,
        0.10490503162145615,
        -0.0583876371383667,
        -0.026469744741916656,
        -0.13615338504314423,
        0.01769772358238697,
        0.18689681589603424,
        0.09754037111997604,
        -0.07927222549915314,
        0.018207954242825508,
        -0.0015669777058064938,
        -0.12315927445888519,
        0.15865682065486908,
        0.020560232922434807,
        0.047664232552051544,
        -0.055302850902080536,
        -0.06227966398000717,
        0.05002576857805252,
        0.0859403908252716,
        0.057845864444971085,
        -0.06584874540567398,
        0.191654771566391,
        -0.006510185077786446,
        -0.0922335684299469,
        -0.06514181196689606,
        0.19072188436985016,
        0.01491518598049879,
        -0.00902724638581276
      ]
    ],
    "reinforcement.net.2.bias": [
      -0.05255114287137985
    ]
  }
}