{
  "full_pred_dir": "/home/wangzhe/DroneP_VG/visdrone_test_100/groundingdino_threshold_search/bt_0p20_tt_0p20_nms_0p40/preds",
  "sw_pred_dir": "/home/wangzhe/DroneP_VG/project_records/results/predictions/sw_grid_20260318_cfg02",
  "gt_dir": "/home/wangzhe/DroneP_VG/visdrone_test_100/annotations",
  "output_pred_dir": "/home/wangzhe/DroneP_VG/project_records/results/predictions/fusion_stageA_extcal_20260318",
  "epochs": 40,
  "lr": 0.003,
  "hidden_dim": 16,
  "weight_decay": 0.0001,
  "nms_iou": 0.5,
  "score_threshold": 0.1,
  "num_stems": 100,
  "num_train_samples": 8469,
  "num_output_boxes": 5494,
  "feature_mean": [
    0.3351263999938965,
    0.5692525506019592,
    3.6036648750305176,
    3.6095266342163086,
    7.213191032409668,
    -0.005861900746822357,
    0.3138997256755829,
    0.3953405022621155,
    0.3727998435497284
  ],
  "feature_std": [
    0.10241230577230453,
    0.49521008133888245,
    0.8058518171310425,
    0.6954132914543152,
    1.3915672302246094,
    0.5740506052970886,
    0.1277303248643875,
    0.20417773723602295,
    0.2675664722919464
  ],
  "state_dict": {
    "net.0.weight": [
      [
        0.37341931462287903,
        0.1521606296300888,
        0.030086595565080643,
        0.37578243017196655,
        0.027584414929151535,
        0.1864587962627411,
        -0.0753876119852066,
        0.07792651653289795,
        0.2725140154361725
      ],
      [
        -0.20023688673973083,
        0.24188488721847534,
        0.1121872067451477,
        0.29961976408958435,
        0.09637455642223358,
        0.20728667080402374,
        0.026258425787091255,
        0.20957344770431519,
        0.01030431967228651
      ],
      [
        -0.03170659765601158,
        -0.03299444541335106,
        -0.04434747248888016,
        -0.1742382049560547,
        -0.03421567380428314,
        0.33517366647720337,
        -0.2356179654598236,
        -0.2684759497642517,
        -0.21658270061016083
      ],
      [
        -0.31865137815475464,
        0.1386261284351349,
        -0.34830954670906067,
        0.4314229488372803,
        -0.23467087745666504,
        0.15755991637706757,
        0.181598961353302,
        0.005617678165435791,
        0.11726239323616028
      ],
      [
        0.17585836350917816,
        0.1413721889257431,
        0.14759285748004913,
        -0.03260255977511406,
        0.19357256591320038,
        0.0306398905813694,
        0.08103682845830917,
        0.16976884007453918,
        0.2616179287433624
      ],
      [
        -0.27530810236930847,
        0.32181283831596375,
        0.03493471443653107,
        0.25800448656082153,
        -0.18474999070167542,
        -0.4251004755496979,
        -0.112636037170887,
        -0.20561695098876953,
        0.39287126064300537
      ],
      [
        0.0020030890591442585,
        0.1983334869146347,
        0.04088401421904564,
        -0.03165215626358986,
        0.20441435277462006,
        -0.31490013003349304,
        0.04353918507695198,
        -0.13240839540958405,
        0.07612010091543198
      ],
      [
        -0.0158001109957695,
        0.006686733104288578,
        -0.01670863665640354,
        0.2695379853248596,
        -0.16117966175079346,
        -0.11639182269573212,
        -0.17855402827262878,
        0.20456445217132568,
        0.009209520183503628
      ],
      [
        0.45066002011299133,
        -0.40180444717407227,
        -0.20085707306861877,
        -0.12936130166053772,
        -0.09384461492300034,
        0.2634817063808441,
        -0.014606911689043045,
        0.14879575371742249,
        -0.10313644260168076
      ],
      [
        -0.35136550664901733,
        0.289646714925766,
        -0.11687856912612915,
        0.34187525510787964,
        -0.024509822949767113,
        0.1261480152606964,
        -0.31602025032043457,
        -0.04816204309463501,
        0.21991057693958282
      ],
      [
        -0.030201466754078865,
        0.01432480476796627,
        0.11788902431726456,
        0.17595183849334717,
        -0.3177987337112427,
        -0.2642172574996948,
        0.3897540271282196,
        0.0024030650965869427,
        -0.08204150199890137
      ],
      [
        -0.45856061577796936,
        -0.060570862144231796,
        0.05112650245428085,
        0.05721140652894974,
        -0.22870782017707825,
        -0.0635855495929718,
        -0.22415055334568024,
        -0.16081176698207855,
        -0.05500650033354759
      ],
      [
        -0.18325257301330566,
        -0.3131556808948517,
        0.4239390790462494,
        0.10976435989141464,
        0.18556804955005646,
        -0.20855987071990967,
        -0.1841231882572174,
        -0.18631604313850403,
        0.10918228328227997
      ],
      [
        -0.4186197519302368,
        -0.02631051279604435,
        -0.19598568975925446,
        0.1360570788383484,
        -0.06848020106554031,
        -0.11195261031389236,
        -0.22432833909988403,
        -0.10627110302448273,
        -0.080160953104496
      ],
      [
        -0.21001999080181122,
        -0.16427083313465118,
        0.19355203211307526,
        -0.1407574862241745,
        0.20340682566165924,
        0.013139878399670124,
        -0.3547530770301819,
        0.3242242932319641,
        -0.12466564029455185
      ],
      [
        -0.2498534917831421,
        -0.15749689936637878,
        -0.38190779089927673,
        0.1359979510307312,
        -0.10309657454490662,
        0.053761616349220276,
        -0.2752493917942047,
        0.37272000312805176,
        -0.14852383732795715
      ]
    ],
    "net.0.bias": [
      0.06646731495857239,
      0.058131784200668335,
      0.311574250459671,
      0.3903625011444092,
      0.43116921186447144,
      -0.14058858156204224,
      0.0071882326155900955,
      -0.22985436022281647,
      0.09873750060796738,
      -0.13391157984733582,
      0.22153910994529724,
      -0.10586076974868774,
      0.29421499371528625,
      0.24513503909111023,
      0.02687079645693302,
      -0.05973559990525246
    ],
    "net.2.weight": [
      [
        0.3490782678127289,
        -0.057617682963609695,
        0.09606765955686569,
        -0.342549204826355,
        0.23664052784442902,
        -0.14639019966125488,
        -0.06294913589954376,
        0.13450726866722107,
        0.1837153136730194,
        -0.2584450840950012,
        -0.10471794009208679,
        -0.1242600828409195,
        0.09927044808864594,
        -0.17063361406326294,
        -0.07227595895528793,
        -0.19364427030086517
      ]
    ],
    "net.2.bias": [
      -0.07503270357847214
    ]
  }
}