{
  "full_pred_dir": "/home/wangzhe/DroneP_VG/visdrone_test_100/groundingdino_threshold_search/bt_0p20_tt_0p20_nms_0p40/preds",
  "sw_pred_dir": "/home/wangzhe/DroneP_VG/project_records/results/predictions/sw_grid_20260318_cfg02",
  "gt_dir": "/home/wangzhe/DroneP_VG/visdrone_test_100/annotations",
  "output_pred_dir": "/home/wangzhe/DroneP_VG/project_records/results/predictions/fusion_stageA_extcal_longrun_20260318",
  "epochs": 200,
  "lr": 0.0015,
  "hidden_dim": 64,
  "weight_decay": 5e-05,
  "nms_iou": 1.0,
  "score_threshold": 0.0,
  "progress_log": "/home/wangzhe/DroneP_VG/project_records/results/metrics/lightweight_optimization/training_progress_external_calibrator_stageA_longrun_20260318.tsv",
  "num_stems": 100,
  "num_train_samples": 8469,
  "num_output_boxes": 8469,
  "feature_mean": [
    0.3351263999938965,
    0.5692525506019592,
    3.6036648750305176,
    3.6095266342163086,
    7.213191032409668,
    -0.005861900746822357,
    0.3138997256755829,
    0.3953405022621155,
    0.3727998435497284
  ],
  "feature_std": [
    0.10241230577230453,
    0.49521008133888245,
    0.8058518171310425,
    0.6954132914543152,
    1.3915672302246094,
    0.5740506052970886,
    0.1277303248643875,
    0.20417773723602295,
    0.2675664722919464
  ],
  "state_dict": {
    "net.0.weight": [
      [
        0.39005523920059204,
        0.5335803031921387,
        -0.03034329041838646,
        0.23183640837669373,
        -0.06407639384269714,
        0.1610436588525772,
        -0.061611108481884,
        0.19377437233924866,
        0.23858140408992767
      ],
      [
        -0.3827178478240967,
        0.15316344797611237,
        0.01853661797940731,
        0.15466958284378052,
        -0.01922936923801899,
        0.14527657628059387,
        0.0984647274017334,
        0.15451966226100922,
        0.06994420289993286
      ],
      [
        -0.07125391811132431,
        0.13971339166164398,
        -0.1461508721113205,
        0.015238884836435318,
        -0.10947966575622559,
        0.15011774003505707,
        -0.28422024846076965,
        -0.0542600117623806,
        -0.184114009141922
      ],
      [
        -0.13925684988498688,
        -0.035343628376722336,
        -0.2858158051967621,
        0.3503653407096863,
        -0.2346397340297699,
        0.2584366500377655,
        -0.02626361884176731,
        -0.04319658875465393,
        0.09808923304080963
      ],
      [
        -0.04671928659081459,
        0.02382533624768257,
        0.006441427860409021,
        -0.1167612224817276,
        0.0643221065402031,
        -0.13123703002929688,
        0.4014516770839691,
        0.5945542454719543,
        -0.035220276564359665
      ],
      [
        -0.27102941274642944,
        0.12650428712368011,
        0.07388748228549957,
        0.12939319014549255,
        -0.218540221452713,
        -0.26657378673553467,
        -0.044783104211091995,
        -0.49706465005874634,
        0.3422408103942871
      ],
      [
        0.21666114032268524,
        0.29795923829078674,
        0.19396892189979553,
        -0.13529229164123535,
        0.2638750970363617,
        -0.10138501971960068,
        -0.005217615514993668,
        -0.010311512276530266,
        -0.015498921275138855
      ],
      [
        -0.21426083147525787,
        -0.04019446671009064,
        -0.06381236761808395,
        0.37347134947776794,
        -0.1487790048122406,
        -0.3070838153362274,
        -0.3345593810081482,
        0.4588009715080261,
        -0.12012358754873276
      ],
      [
        0.27112695574760437,
        -0.2734397053718567,
        -0.3962024450302124,
        -0.2827654182910919,
        -0.27795466780662537,
        0.02031453512609005,
        0.044568926095962524,
        0.07794457674026489,
        -0.1508926898241043
      ],
      [
        -0.320905864238739,
        -0.03858489543199539,
        -0.11992128938436508,
        0.30618661642074585,
        -0.02196652442216873,
        0.09967371821403503,
        -0.4996303617954254,
        -0.41693776845932007,
        0.1402999311685562
      ],
      [
        0.15537618100643158,
        -0.16852247714996338,
        0.26682770252227783,
        0.2402198165655136,
        -0.17850060760974884,
        -0.08730576187372208,
        0.21469669044017792,
        -0.02442929707467556,
        -0.15307675302028656
      ],
      [
        -0.4568916857242584,
        0.07022245228290558,
        0.07396502792835236,
        0.0009509975789114833,
        -0.22786329686641693,
        -0.04777584969997406,
        -0.22933562099933624,
        -0.4441424012184143,
        -0.1259443312883377
      ],
      [
        -0.21590262651443481,
        -0.3273353576660156,
        0.35858154296875,
        -0.02043539099395275,
        0.0993867889046669,
        -0.2510565519332886,
        -0.19052350521087646,
        -0.029683025553822517,
        0.1805090606212616
      ],
      [
        -0.4402535557746887,
        -0.10311916470527649,
        -0.012883930467069149,
        0.21494203805923462,
        0.07988761365413666,
        -0.10628082603216171,
        -0.1855568289756775,
        -0.45326176285743713,
        0.0786895826458931
      ],
      [
        0.028103921562433243,
        -0.23560743033885956,
        0.3831915259361267,
        0.0465506985783577,
        0.4132828712463379,
        0.1808893084526062,
        -0.1558508574962616,
        0.023758694529533386,
        0.16456525027751923
      ],
      [
        -0.040620431303977966,
        -0.3709961473941803,
        -0.29436710476875305,
        0.08300905674695969,
        -0.05092502385377884,
        0.1934746354818344,
        -0.22417885065078735,
        0.14509530365467072,
        -0.16361397504806519
      ],
      [
        -0.1989363133907318,
        -0.06143771484494209,
        0.27573496103286743,
        0.4738485515117645,
        0.46465227007865906,
        -0.4310755729675293,
        0.23555932939052582,
        -0.32051584124565125,
        -0.08695846050977707
      ],
      [
        -0.3819865882396698,
        0.07159799337387085,
        -0.2298789620399475,
        0.17614276707172394,
        0.12477205693721771,
        0.11884073168039322,
        -0.14118161797523499,
        0.5282028317451477,
        0.2884969711303711
      ],
      [
        0.16863204538822174,
        -0.08088056743144989,
        0.13899877667427063,
        -0.3010484278202057,
        -0.2210487276315689,
        0.4027043879032135,
        0.07707808911800385,
        0.023156000301241875,
        -0.2061360776424408
      ],
      [
        0.04192781075835228,
        0.1859721839427948,
        -0.10054521262645721,
        -0.20180799067020416,
        -0.1283777505159378,
        -0.26272904872894287,
        -0.05643938481807709,
        0.11800998449325562,
        -0.26981350779533386
      ],
      [
        0.012797979637980461,
        0.001203400082886219,
        -0.011488331481814384,
        -0.148392915725708,
        0.1097056195139885,
        0.08916538953781128,
        0.3565612733364105,
        -0.12381269782781601,
        0.04369557276368141
      ],
      [
        0.1644924432039261,
        -0.028326543048024178,
        0.09319330751895905,
        0.28410208225250244,
        0.4993249773979187,
        0.11653516441583633,
        0.04245743155479431,
        0.12663204967975616,
        0.1361909657716751
      ],
      [
        -0.003696256084367633,
        -0.04698716104030609,
        -0.360527366399765,
        -0.1377292275428772,
        0.23239339888095856,
        0.04977710545063019,
        0.09428953379392624,
        -0.2662994861602783,
        -0.20421186089515686
      ],
      [
        -0.25544965267181396,
        0.025570083409547806,
        0.18440638482570648,
        0.1338001787662506,
        0.19998805224895477,
        -0.19537009298801422,
        -0.20653210580348969,
        -0.013103554956614971,
        0.4881291091442108
      ],
      [
        0.19592943787574768,
        0.019031310454010963,
        0.20590181648731232,
        -0.28583231568336487,
        -0.21379239857196808,
        0.40928614139556885,
        0.008830995298922062,
        -0.07261816412210464,
        -0.3745788633823395
      ],
      [
        0.3518927991390228,
        0.018657924607396126,
        0.08995606750249863,
        -0.08501096814870834,
        -0.27724751830101013,
        -0.36110588908195496,
        -0.0010803898330777884,
        -0.08421655744314194,
        0.19476327300071716
      ],
      [
        0.175129234790802,
        -0.11120986938476562,
        -0.08785106241703033,
        -0.3707006871700287,
        -0.3810058832168579,
        -0.3137740194797516,
        -0.15268650650978088,
        0.03668515384197235,
        -0.1727939248085022
      ],
      [
        -0.36034542322158813,
        -0.10400231182575226,
        -0.29246166348457336,
        -0.2967521548271179,
        0.022691424936056137,
        -0.050656259059906006,
        0.4209590554237366,
        -0.447609543800354,
        -0.4449020028114319
      ],
      [
        0.02485223487019539,
        -0.5033693909645081,
        -0.044744666665792465,
        -0.2750953435897827,
        0.2325480580329895,
        -0.15768587589263916,
        0.0074643357656896114,
        0.11115892231464386,
        0.36710622906684875
      ],
      [
        -0.4046597182750702,
        0.11268037557601929,
        0.0015416534151881933,
        0.3072246015071869,
        0.4886503219604492,
        -0.1189478263258934,
        0.12256981432437897,
        -0.15833419561386108,
        -0.04694931209087372
      ],
      [
        0.21260705590248108,
        -0.6419209241867065,
        0.07656697928905487,
        -0.016021542251110077,
        0.0990721583366394,
        -0.032542623579502106,
        -0.12380602955818176,
        0.13983549177646637,
        0.40286704897880554
      ],
      [
        -0.2859494686126709,
        -0.07194463163614273,
        -0.15589822828769684,
        -0.010522236116230488,
        -0.1262843906879425,
        -0.08093614876270294,
        -0.06872213631868362,
        -0.2863558530807495,
        0.22621935606002808
      ],
      [
        0.3841024935245514,
        0.04718554764986038,
        0.035519059747457504,
        -0.045072104781866074,
        -0.22088970243930817,
        -0.26369088888168335,
        -0.05910797789692879,
        -0.030054012313485146,
        0.05913323909044266
      ],
      [
        0.07229617238044739,
        -0.08997383713722229,
        -0.1013789027929306,
        -0.05694331228733063,
        -0.08677481859922409,
        -0.06790328025817871,
        -0.10445220023393631,
        -0.16025881469249725,
        0.23948070406913757
      ],
      [
        -0.260977566242218,
        -0.001127895200625062,
        -0.14004506170749664,
        0.011317737400531769,
        0.28634506464004517,
        0.12305331230163574,
        -0.43259361386299133,
        0.08975536376237869,
        0.26759085059165955
      ],
      [
        0.19472673535346985,
        0.03906968981027603,
        0.4424406886100769,
        0.0540928989648819,
        0.18989627063274384,
        -0.12893076241016388,
        0.05047374591231346,
        0.17531277239322662,
        0.13890652358531952
      ],
      [
        -0.38181379437446594,
        -0.16949324309825897,
        -0.2172822505235672,
        -0.4134049117565155,
        -0.2847515344619751,
        0.03049570322036743,
        0.44083958864212036,
        0.30057185888290405,
        -0.15831133723258972
      ],
      [
        -0.4327774941921234,
        0.05523700639605522,
        -0.2036740481853485,
        0.05551877245306969,
        0.2258376181125641,
        -0.23718245327472687,
        0.17086142301559448,
        -0.20063407719135284,
        -0.06321484595537186
      ],
      [
        -0.2645084857940674,
        -0.06260368973016739,
        -0.26615890860557556,
        -0.11196789145469666,
        0.34098106622695923,
        -0.19851639866828918,
        -0.46493446826934814,
        -0.019748913124203682,
        -0.0016316726105287671
      ],
      [
        0.2793567180633545,
        0.062435757368803024,
        0.2429586797952652,
        -0.34020739793777466,
        0.0652344673871994,
        0.3074973523616791,
        0.1272353082895279,
        -0.003156880382448435,
        0.01886236108839512
      ],
      [
        -0.04794664680957794,
        -0.15038396418094635,
        -0.25773924589157104,
        -0.017526108771562576,
        0.16564030945301056,
        0.1463320106267929,
        -0.05188442021608353,
        -0.17662417888641357,
        -0.2845872938632965
      ],
      [
        -0.014343700371682644,
        0.029755044728517532,
        0.17303992807865143,
        -0.1227448508143425,
        -0.027034791186451912,
        -0.2521176338195801,
        -0.35171306133270264,
        0.2527923583984375,
        0.032837722450494766
      ],
      [
        0.21690548956394196,
        -0.21480032801628113,
        0.16895489394664764,
        -0.2745214104652405,
        0.07396119087934494,
        0.22193044424057007,
        -0.02601233683526516,
        0.3295743763446808,
        -0.2988438606262207
      ],
      [
        -0.04881661385297775,
        0.11039406061172485,
        -0.040886446833610535,
        -0.08693854510784149,
        -0.12103389948606491,
        0.29132530093193054,
        -0.008897381834685802,
        -0.08027826994657516,
        -0.3486269414424896
      ],
      [
        -0.47113269567489624,
        0.1016547679901123,
        -0.0519336462020874,
        -0.3742032051086426,
        -0.27582886815071106,
        0.18695245683193207,
        0.18152408301830292,
        0.20964400470256805,
        0.16600628197193146
      ],
      [
        -0.19987685978412628,
        -0.5164983868598938,
        -0.10997503995895386,
        -0.10578340291976929,
        0.1560610979795456,
        -0.0614558570086956,
        -0.12791180610656738,
        0.2273510843515396,
        0.24568402767181396
      ],
      [
        0.1948045939207077,
        -0.0424642413854599,
        -0.1742541342973709,
        0.20260092616081238,
        -0.21389059722423553,
        -0.3394697308540344,
        0.06622742861509323,
        -0.1945837140083313,
        -0.08836439251899719
      ],
      [
        0.09891463071107864,
        0.1218169778585434,
        0.05166672170162201,
        -0.11153769493103027,
        -0.3247152268886566,
        -0.04141442850232124,
        0.3124934732913971,
        0.4368922710418701,
        0.03666311502456665
      ],
      [
        -0.25360941886901855,
        0.08938825875520706,
        -0.2833257019519806,
        0.22139357030391693,
        -0.1370459944009781,
        -0.041631706058979034,
        0.10214217007160187,
        0.13786354660987854,
        -0.11953417956829071
      ],
      [
        0.19450484216213226,
        -0.08201662451028824,
        0.1162145659327507,
        0.23764874041080475,
        -0.27977004647254944,
        -0.4187438189983368,
        0.4679468274116516,
        0.4036943316459656,
        -0.44432196021080017
      ],
      [
        0.08686769008636475,
        -0.6571440696716309,
        -0.23328912258148193,
        0.11572545766830444,
        0.12766677141189575,
        0.08977450430393219,
        -0.10175618529319763,
        0.2513153553009033,
        0.3005928695201874
      ],
      [
        -0.09525641798973083,
        0.09684552997350693,
        0.1128627136349678,
        0.02957310900092125,
        -0.2384791374206543,
        0.21245302259922028,
        -0.14693449437618256,
        -0.131149560213089,
        -0.3241889178752899
      ],
      [
        0.422174334526062,
        0.12936055660247803,
        0.46588391065597534,
        0.2629448175430298,
        0.41906633973121643,
        0.1162339374423027,
        0.0710025355219841,
        0.25457674264907837,
        -0.09420192241668701
      ],
      [
        -0.14898087084293365,
        -0.19064970314502716,
        0.08051630854606628,
        0.09997572749853134,
        -0.14944206178188324,
        -0.13569636642932892,
        -0.049172576516866684,
        -0.11476598680019379,
        -0.20623990893363953
      ],
      [
        0.3019527494907379,
        -0.05639703571796417,
        0.43986961245536804,
        0.3483743667602539,
        0.2443363070487976,
        0.23807992041110992,
        0.09924205392599106,
        0.10631714016199112,
        -0.034795016050338745
      ],
      [
        0.1421622633934021,
        -0.015757925808429718,
        0.4288690388202667,
        0.020589768886566162,
        -0.013110270723700523,
        0.027508772909641266,
        0.04209817573428154,
        0.060415852814912796,
        0.169791117310524
      ],
      [
        0.3733585476875305,
        -0.0700783059000969,
        -0.18135574460029602,
        -0.07666340470314026,
        0.002280701184645295,
        -0.02416042983531952,
        -0.12234557420015335,
        -0.07204008102416992,
        0.2272924929857254
      ],
      [
        -0.16251754760742188,
        -0.3046928346157074,
        -0.24397039413452148,
        0.30883800983428955,
        -0.2839338183403015,
        0.2855163812637329,
        -0.1012667864561081,
        0.011828163638710976,
        0.295454740524292
      ],
      [
        -0.1428551971912384,
        0.032858312129974365,
        0.1639699786901474,
        -0.4179089665412903,
        0.03161678463220596,
        0.03958259895443916,
        0.4132782220840454,
        -0.011236056685447693,
        0.21657079458236694
      ],
      [
        -0.08570169657468796,
        -0.24149686098098755,
        0.31321319937705994,
        0.1041177436709404,
        -0.05615166947245598,
        -0.26876530051231384,
        -0.015918536111712456,
        -0.1290605068206787,
        0.36792540550231934
      ],
      [
        -0.1521606147289276,
        -0.01373752485960722,
        0.03699326515197754,
        -0.020047610625624657,
        0.38150787353515625,
        0.16162841022014618,
        0.2216700315475464,
        0.2516225576400757,
        0.21786300837993622
      ],
      [
        -0.29480403661727905,
        0.07002248615026474,
        0.2735849618911743,
        -0.059061843901872635,
        0.2234748899936676,
        0.10551860183477402,
        -0.4808772802352905,
        -0.029895614832639694,
        0.26521578431129456
      ],
      [
        0.18425056338310242,
        0.07689355313777924,
        0.366566926240921,
        0.6026894450187683,
        0.21545419096946716,
        -0.2827463150024414,
        -0.2829243838787079,
        -0.3006521165370941,
        -0.12294042110443115
      ],
      [
        -0.3016784191131592,
        -0.13605818152427673,
        -0.29627007246017456,
        -0.259914755821228,
        -0.34301668405532837,
        -0.12284155189990997,
        0.34117865562438965,
        0.46877336502075195,
        -0.13419169187545776
      ]
    ],
    "net.0.bias": [
      0.06015028432011604,
      0.2546534240245819,
      -0.19879044592380524,
      -0.2099686563014984,
      -0.048994142562150955,
      -0.21321943402290344,
      0.2737787067890167,
      0.34393587708473206,
      0.023781679570674896,
      0.16115066409111023,
      -0.07654465734958649,
      0.037779323756694794,
      -0.03918343037366867,
      0.17861592769622803,
      0.3545231521129608,
      0.33520543575286865,
      -0.05912650749087334,
      0.10110906511545181,
      0.09704619646072388,
      -0.2880300283432007,
      -0.1447870433330536,
      -0.09620760381221771,
      0.1168290376663208,
      0.009294869378209114,
      0.05430141091346741,
      0.43347644805908203,
      -0.34759703278541565,
      -0.06463367491960526,
      -0.08502208441495895,
      -0.17559537291526794,
      -0.14136287569999695,
      -0.10265704989433289,
      0.4056513011455536,
      0.4180029332637787,
      0.04436744749546051,
      -0.07289580255746841,
      -0.10869234055280685,
      0.3473568260669708,
      0.23630790412425995,
      0.20624427497386932,
      0.045187171548604965,
      -0.4780769646167755,
      -0.17081719636917114,
      0.39356479048728943,
      -0.043662868440151215,
      -0.06595206260681152,
      -0.3930497467517853,
      -0.2881815433502197,
      0.08863826096057892,
      -0.09243108332157135,
      0.042147889733314514,
      0.1620272994041443,
      -0.20648083090782166,
      0.0544365718960762,
      -0.0685172975063324,
      0.09639478474855423,
      0.2922367453575134,
      0.2305985391139984,
      -0.3237344026565552,
      -0.23180177807807922,
      -0.24097281694412231,
      -0.20587806403636932,
      -0.08995165675878525,
      0.0033315643668174744
    ],
    "net.2.weight": [
      [
        0.1390727013349533,
        -0.26533710956573486,
        0.06822749227285385,
        -0.01042020320892334,
        -0.33991068601608276,
        -0.16642078757286072,
        0.18756499886512756,
        -0.1337605118751526,
        0.015251613222062588,
        -0.18709076941013336,
        0.014855940826237202,
        -0.16905555129051208,
        0.011716576293110847,
        -0.0875696986913681,
        0.135874941945076,
        0.07467154413461685,
        -0.19450217485427856,
        -0.20544105768203735,
        0.1376863420009613,
        0.09016315639019012,
        -0.14159263670444489,
        0.2267066091299057,
        -0.06505417823791504,
        -0.03604758530855179,
        0.19458582997322083,
        0.15937721729278564,
        0.16818495094776154,
        -0.137122243642807,
        0.12851601839065552,
        -0.24896490573883057,
        0.0969797819852829,
        -0.021404271945357323,
        0.218672513961792,
        0.07932618260383606,
        -0.28928840160369873,
        0.19608014822006226,
        -0.14808522164821625,
        -0.13152478635311127,
        -0.22361738979816437,
        0.0975312814116478,
        0.02404845878481865,
        0.14390823245048523,
        -0.0035776051227003336,
        0.0637095719575882,
        -0.23382523655891418,
        0.07318169623613358,
        -0.20769116282463074,
        -0.17390921711921692,
        -0.2029377520084381,
        -0.17112287878990173,
        0.22398604452610016,
        0.0993117168545723,
        0.11802878975868225,
        0.043514497578144073,
        0.13327249884605408,
        0.21219487488269806,
        0.21635551750659943,
        0.04874609783291817,
        -0.2849677503108978,
        0.04217792674899101,
        -0.07135707139968872,
        -0.3013421595096588,
        -0.26992014050483704,
        -0.2096329927444458
      ]
    ],
    "net.2.bias": [
      0.12856535613536835
    ]
  }
}