{
  "full_pred_dir": "/home/wangzhe/DroneP_VG/visdrone_test_100/groundingdino_threshold_search/bt_0p20_tt_0p20_nms_0p40/preds",
  "sw_pred_dir": "/home/wangzhe/DroneP_VG/project_records/results/predictions/sw_grid_20260318_cfg02",
  "gt_dir": "/home/wangzhe/DroneP_VG/visdrone_test_100/annotations",
  "output_pred_dir": "/home/wangzhe/DroneP_VG/project_records/results/predictions/fusion_stageA_hybrid_sl_rl_20260318",
  "sl_epochs": 60,
  "rl_epochs": 40,
  "lr": 0.002,
  "rl_lr": 0.001,
  "hidden_dim": 64,
  "rl_hidden_dim": 32,
  "rl_scale": 1.5,
  "rl_entropy_coef": 0.001,
  "weight_decay": 5e-05,
  "nms_iou": 1.0,
  "score_threshold": 0.0,
  "progress_log": "/home/wangzhe/DroneP_VG/project_records/results/metrics/lightweight_optimization/external_calibrator_stageA_hybrid_sl_rl_20260318_progress.tsv",
  "split": {
    "train_stems": [
      "002_VisDrone2019-DET-train_0000279_03601_d_0000600",
      "003_VisDrone2019-DET-test_0000120_03922_d_0000100",
      "006_VisDrone2019-DET-train_9999962_00000_d_0000070",
      "007_VisDrone2019-DET-test_9999963_00000_d_0000074",
      "008_VisDrone2019-DET-train_0000222_05666_d_0000018",
      "009_VisDrone2019-DET-test_0000073_01275_d_0000002",
      "010_VisDrone2019-DET-train_9999962_00000_d_0000150",
      "011_VisDrone2019-DET-train_9999945_00000_d_0000008",
      "013_VisDrone2019-DET-train_0000308_00401_d_0000307",
      "016_VisDrone2019-DET-train_9999999_00189_d_0000078",
      "017_VisDrone2019-DET-train_9999999_00279_d_0000122",
      "019_VisDrone2019-DET-train_0000334_01177_d_0000027",
      "020_VisDrone2019-DET-train_9999998_00304_d_0000257",
      "021_VisDrone2019-DET-train_0000002_00448_d_0000015",
      "022_VisDrone2019-DET-train_9999965_00000_d_0000035",
      "023_VisDrone2019-DET-train_9999942_00000_d_0000164",
      "024_VisDrone2019-DET-train_0000003_00231_d_0000016",
      "025_VisDrone2019-DET-test_9999963_00000_d_0000058",
      "027_VisDrone2019-DET-train_9999956_00000_d_0000097",
      "031_VisDrone2019-DET-val_0000276_00601_d_0000510",
      "033_VisDrone2019-DET-train_9999962_00000_d_0000142",
      "034_VisDrone2019-DET-train_9999940_00000_d_0000002",
      "035_VisDrone2019-DET-train_9999982_00000_d_0000075",
      "037_VisDrone2019-DET-train_9999998_00107_d_0000085",
      "038_VisDrone2019-DET-train_0000007_05999_d_0000038",
      "039_VisDrone2019-DET-train_9999974_00000_d_0000016",
      "040_VisDrone2019-DET-train_0000008_00889_d_0000039",
      "041_VisDrone2019-DET-train_0000008_01999_d_0000040",
      "042_VisDrone2019-DET-train_0000008_02499_d_0000041",
      "043_VisDrone2019-DET-train_9999951_00000_d_0000059",
      "044_VisDrone2019-DET-test_0000127_00002_d_0000119",
      "045_VisDrone2019-DET-test_9999941_00000_d_0000004",
      "046_VisDrone2019-DET-train_9999967_00000_d_0000004",
      "047_VisDrone2019-DET-train_9999994_00000_d_0000097",
      "048_VisDrone2019-DET-val_0000330_02201_d_0000811",
      "049_VisDrone2019-DET-train_0000008_02999_d_0000042",
      "050_VisDrone2019-DET-train_9999950_00000_d_0000031",
      "051_VisDrone2019-DET-val_0000330_04001_d_0000820",
      "052_VisDrone2019-DET-train_0000008_03499_d_0000043",
      "053_VisDrone2019-DET-test_9999973_00000_d_0000076",
      "056_VisDrone2019-DET-train_9999982_00000_d_0000060",
      "057_VisDrone2019-DET-train_9999966_00000_d_0000102",
      "059_VisDrone2019-DET-test_9999973_00000_d_0000108",
      "060_VisDrone2019-DET-train_0000008_03999_d_0000044",
      "061_VisDrone2019-DET-train_9999955_00000_d_0000159",
      "062_VisDrone2019-DET-train_9999981_00000_d_0000017",
      "063_VisDrone2019-DET-train_0000008_04499_d_0000045",
      "064_VisDrone2019-DET-train_9999951_00000_d_0000261",
      "066_VisDrone2019-DET-train_0000010_00569_d_0000056",
      "067_VisDrone2019-DET-train_9999945_00000_d_0000013",
      "068_VisDrone2019-DET-train_9999982_00000_d_0000173",
      "069_VisDrone2019-DET-train_0000257_00249_d_0000043",
      "071_VisDrone2019-DET-train_0000010_05149_d_0000057",
      "073_VisDrone2019-DET-train_9999999_00440_d_0000195",
      "074_VisDrone2019-DET-train_9999984_00000_d_0000082",
      "075_VisDrone2019-DET-train_9999998_00151_d_0000127",
      "077_VisDrone2019-DET-val_0000356_04705_d_0000653",
      "079_VisDrone2019-DET-train_9999969_00000_d_0000044",
      "080_VisDrone2019-DET-train_9999955_00000_d_0000062",
      "081_VisDrone2019-DET-test_9999952_00000_d_0000169",
      "083_VisDrone2019-DET-val_0000291_02001_d_0000878",
      "084_VisDrone2019-DET-train_9999998_00031_d_0000024",
      "086_VisDrone2019-DET-train_9999982_00000_d_0000200",
      "088_VisDrone2019-DET-test_9999938_00000_d_0000365",
      "091_VisDrone2019-DET-train_0000013_00465_d_0000067",
      "092_VisDrone2019-DET-train_9999972_00000_d_0000032",
      "093_VisDrone2019-DET-train_0000016_00420_d_0000068",
      "097_VisDrone2019-DET-test_9999952_00000_d_0000059",
      "099_VisDrone2019-DET-train_0000084_00281_d_0000002",
      "100_VisDrone2019-DET-train_0000030_00754_d_0000036"
    ],
    "val_stems": [
      "001_VisDrone2019-DET-train_0000002_00005_d_0000014",
      "026_VisDrone2019-DET-train_0000007_04999_d_0000036",
      "028_VisDrone2019-DET-test_9999973_00000_d_0000049",
      "030_VisDrone2019-DET-train_9999951_00000_d_0000168",
      "054_VisDrone2019-DET-train_0000260_00441_d_0000104",
      "058_VisDrone2019-DET-test_9999941_00000_d_0000006",
      "065_VisDrone2019-DET-train_9999955_00000_d_0000181",
      "072_VisDrone2019-DET-train_0000010_05291_d_0000058",
      "078_VisDrone2019-DET-train_9999945_00000_d_0000047",
      "085_VisDrone2019-DET-train_9999966_00000_d_0000054",
      "089_VisDrone2019-DET-train_9999937_00000_d_0000182",
      "090_VisDrone2019-DET-train_0000124_02088_d_0000121",
      "094_VisDrone2019-DET-test_9999938_00000_d_0000472",
      "096_VisDrone2019-DET-train_0000261_00001_d_0000120",
      "098_VisDrone2019-DET-train_0000016_01352_d_0000069"
    ],
    "test_stems": [
      "004_VisDrone2019-DET-train_9999990_00000_d_0000025",
      "005_VisDrone2019-DET-test_9999976_00000_d_0000013",
      "012_VisDrone2019-DET-train_9999951_00000_d_0000334",
      "014_VisDrone2019-DET-train_9999951_00000_d_0000079",
      "015_VisDrone2019-DET-test_9999938_00000_d_0000209",
      "018_VisDrone2019-DET-test_9999986_00000_d_0000021",
      "029_VisDrone2019-DET-train_9999998_00308_d_0000261",
      "032_VisDrone2019-DET-train_0000007_05499_d_0000037",
      "036_VisDrone2019-DET-test_9999952_00000_d_0000232",
      "055_VisDrone2019-DET-test_9999938_00000_d_0000453",
      "070_VisDrone2019-DET-train_9999953_00000_d_0000227",
      "076_VisDrone2019-DET-train_9999998_00405_d_0000357",
      "082_VisDrone2019-DET-train_9999998_00395_d_0000347",
      "087_VisDrone2019-DET-train_9999943_00000_d_0000059",
      "095_VisDrone2019-DET-test_9999973_00000_d_0000105"
    ]
  },
  "num_stems": 100,
  "num_samples": 8469,
  "num_train_samples": 6241,
  "num_val_samples": 1366,
  "num_test_samples": 862,
  "num_output_boxes": 8469,
  "train_time_sec": 0.44474124908447266,
  "test_cls_loss": 0.6707144975662231,
  "test_cls_acc": 0.7041763067245483,
  "test_det_acc05": 0.30385852090032156,
  "feature_mean": [
    0.336618572473526,
    0.5672168135643005,
    3.5971508026123047,
    3.5907177925109863,
    7.187868118286133,
    0.00643285783007741,
    0.31259676814079285,
    0.40563666820526123,
    0.3834131360054016
  ],
  "feature_std": [
    0.10275804251432419,
    0.49550101161003113,
    0.784238338470459,
    0.6879025101661682,
    1.3506585359573364,
    0.5934651494026184,
    0.12713871896266937,
    0.20470453798770905,
    0.2784765958786011
  ],
  "state_dict": {
    "supervised.net.0.weight": [
      [
        0.37593960762023926,
        0.38547083735466003,
        0.007812938652932644,
        0.2886718809604645,
        -0.007587595377117395,
        0.17349457740783691,
        -0.14930623769760132,
        0.22769638895988464,
        0.28490692377090454
      ],
      [
        -0.351805716753006,
        0.21958550810813904,
        0.0017218968132510781,
        0.23341429233551025,
        -0.004943475592881441,
        0.08548600226640701,
        0.05648782104253769,
        0.18120679259300232,
        0.04150595888495445
      ],
      [
        -0.0812704861164093,
        0.08715365082025528,
        -0.1307024359703064,
        -0.00791184138506651,
        -0.10942104458808899,
        0.23252372443675995,
        -0.24728113412857056,
        -0.11549682170152664,
        -0.12653471529483795
      ],
      [
        -0.14001688361167908,
        -0.03566218540072441,
        -0.2950410842895508,
        0.34645020961761475,
        -0.2437051683664322,
        0.26129868626594543,
        -0.030654963105916977,
        -0.0562710203230381,
        0.10943355411291122
      ],
      [
        -0.035071272403001785,
        0.20723848044872284,
        -0.013966337777674198,
        -0.13921841979026794,
        0.04328330233693123,
        -0.14905430376529694,
        0.2722953259944916,
        0.3886227309703827,
        0.10697852820158005
      ],
      [
        -0.2558467388153076,
        0.16462603211402893,
        0.10135995596647263,
        0.29803502559661865,
        -0.13034987449645996,
        -0.3636612296104431,
        -0.09935172647237778,
        -0.3765067458152771,
        0.36793339252471924
      ],
      [
        0.21390870213508606,
        0.2116830050945282,
        0.19206908345222473,
        -0.10632229596376419,
        0.30595824122428894,
        -0.12814545631408691,
        -0.04591219499707222,
        -0.10931503027677536,
        0.10335593670606613
      ],
      [
        -0.22786612808704376,
        0.03414009138941765,
        -0.04445412755012512,
        0.3413615822792053,
        -0.15490147471427917,
        -0.2379360795021057,
        -0.15460383892059326,
        0.3190746009349823,
        3.260537050664425e-05
      ],
      [
        0.27727043628692627,
        -0.2352588027715683,
        -0.37929344177246094,
        -0.28987711668014526,
        -0.26766878366470337,
        0.07109290361404419,
        0.14144958555698395,
        0.28758805990219116,
        -0.19379200041294098
      ],
      [
        -0.3317510485649109,
        0.07316424697637558,
        -0.1138034388422966,
        0.28903254866600037,
        -0.027043011039495468,
        0.12115025520324707,
        -0.29234763979911804,
        -0.28152093291282654,
        0.15595975518226624
      ],
      [
        0.15624400973320007,
        -0.17085795104503632,
        0.2653367221355438,
        0.24938715994358063,
        -0.1847429722547531,
        -0.09283855557441711,
        0.22096040844917297,
        -0.02646637335419655,
        -0.13654792308807373
      ],
      [
        -0.42637789249420166,
        -0.10447322577238083,
        0.08125463873147964,
        0.018447376787662506,
        -0.21512913703918457,
        -0.055901966989040375,
        -0.21019041538238525,
        -0.3826334476470947,
        -0.16034956276416779
      ],
      [
        -0.21540366113185883,
        -0.315947562456131,
        0.3753707706928253,
        -0.040132179856300354,
        0.11912313103675842,
        -0.24760708212852478,
        -0.2004833072423935,
        -0.038094695657491684,
        0.08073893189430237
      ],
      [
        -0.39079082012176514,
        -0.095394566655159,
        -0.09707190096378326,
        0.12712372839450836,
        -0.007178003434091806,
        -0.06779499351978302,
        -0.12349829822778702,
        -0.3257841169834137,
        -0.10387174040079117
      ],
      [
        0.008322425186634064,
        -0.20809680223464966,
        0.37977471947669983,
        -0.03283773735165596,
        0.37951943278312683,
        0.21148574352264404,
        -0.3003230094909668,
        0.2252144068479538,
        0.009963609278202057
      ],
      [
        -0.043686192482709885,
        -0.35853439569473267,
        -0.28774183988571167,
        0.09184600412845612,
        -0.041642382740974426,
        0.1934104859828949,
        -0.2614852488040924,
        0.22130128741264343,
        -0.18645237386226654
      ],
      [
        -0.18502898514270782,
        -0.047872379422187805,
        0.1661878079175949,
        0.39349308609962463,
        0.3525349199771881,
        -0.3698861300945282,
        0.2143843024969101,
        -0.272327184677124,
        -0.06991089880466461
      ],
      [
        -0.35863450169563293,
        0.23490038514137268,
        -0.24814248085021973,
        0.22342869639396667,
        0.1313656121492386,
        0.06388367712497711,
        -0.12628130614757538,
        0.35024744272232056,
        0.11638441681861877
      ],
      [
        0.10801339894533157,
        -0.3362160623073578,
        0.18832135200500488,
        -0.07173393666744232,
        -0.11372937262058258,
        0.3449350595474243,
        0.0059937904588878155,
        -0.12849098443984985,
        -0.15955094993114471
      ],
      [
        0.0540139339864254,
        0.2220146209001541,
        -0.06680336594581604,
        -0.1653900295495987,
        -0.09333181381225586,
        -0.24025122821331024,
        0.014311295002698898,
        0.15607023239135742,
        -0.2634689509868622
      ],
      [
        0.0035116192884743214,
        0.12927448749542236,
        0.0008342510554939508,
        -0.14354586601257324,
        0.12155608832836151,
        0.10379185527563095,
        0.22539456188678741,
        -0.08396635949611664,
        -0.05176462233066559
      ],
      [
        0.1607937216758728,
        -0.09110990911722183,
        0.015457035042345524,
        0.19401594996452332,
        0.38278746604919434,
        0.09383375197649002,
        -0.07380465418100357,
        0.12345331162214279,
        0.06265327334403992
      ],
      [
        -0.0022152778692543507,
        0.025086326524615288,
        -0.3566835820674896,
        -0.13005037605762482,
        0.23760908842086792,
        0.058151185512542725,
        0.03518637642264366,
        -0.2600647211074829,
        -0.21251577138900757
      ],
      [
        -0.2414560765028,
        -0.08224885165691376,
        0.14803433418273926,
        0.13093987107276917,
        0.1744346171617508,
        -0.2461930215358734,
        -0.1800769865512848,
        0.0011906219879165292,
        0.3559759855270386
      ],
      [
        0.1730165332555771,
        -0.13878652453422546,
        0.2426457703113556,
        -0.09580349922180176,
        -0.12232346832752228,
        0.3598373234272003,
        -0.10173380374908447,
        -0.1285748928785324,
        -0.35148152709007263
      ],
      [
        0.33359649777412415,
        0.12711651623249054,
        0.18541672825813293,
        -0.24455633759498596,
        -0.2835747003555298,
        -0.18492157757282257,
        0.13122548162937164,
        0.0579531155526638,
        0.3833177089691162
      ],
      [
        0.26699504256248474,
        0.0211496502161026,
        -0.032358307391405106,
        -0.30565202236175537,
        -0.3234040141105652,
        -0.2959507703781128,
        0.008189748972654343,
        -0.12772126495838165,
        -0.09166491776704788
      ],
      [
        -0.32041311264038086,
        -0.1083977222442627,
        -0.19182884693145752,
        -0.16317620873451233,
        0.15489894151687622,
        -0.10320067405700684,
        0.3369879722595215,
        -0.13107098639011383,
        -0.3631886839866638
      ],
      [
        0.0173928365111351,
        -0.26055091619491577,
        -0.07190116494894028,
        -0.31841301918029785,
        0.20576635003089905,
        -0.1827007681131363,
        0.06789743900299072,
        0.06555981934070587,
        0.31866785883903503
      ],
      [
        -0.37010371685028076,
        0.2374243438243866,
        -0.10463052988052368,
        0.25387489795684814,
        0.4128166437149048,
        -0.13503623008728027,
        0.1302197426557541,
        -0.18591660261154175,
        -0.23464353382587433
      ],
      [
        0.22048412263393402,
        -0.45164579153060913,
        0.22214718163013458,
        0.1340199112892151,
        0.2877053916454315,
        -0.031404368579387665,
        -0.27337878942489624,
        0.1340729147195816,
        0.25576069951057434
      ],
      [
        -0.27720907330513,
        -0.03835248947143555,
        -0.1725512444972992,
        -0.04754840210080147,
        -0.14744949340820312,
        -0.09341151267290115,
        -0.08188331872224808,
        -0.2637544572353363,
        0.2385779619216919
      ],
      [
        0.3797209858894348,
        -0.07975036650896072,
        0.023946918547153473,
        -0.1140088364481926,
        -0.2486656904220581,
        -0.2461680918931961,
        0.011088663712143898,
        -0.15748798847198486,
        -0.11624543368816376
      ],
      [
        0.056665074080228806,
        -0.19900886714458466,
        -0.0826975479722023,
        -0.05456499010324478,
        -0.07257325202226639,
        -0.05491569638252258,
        -0.14276990294456482,
        -0.19882097840309143,
        0.3121095299720764
      ],
      [
        -0.23540998995304108,
        0.11778134107589722,
        -0.1623687744140625,
        0.04199642315506935,
        0.2772199809551239,
        0.0871804803609848,
        -0.3142373561859131,
        0.050530631095170975,
        0.2020108550786972
      ],
      [
        0.19665968418121338,
        0.22335456311702728,
        0.41631922125816345,
        -0.020404072478413582,
        0.1473628431558609,
        -0.13185277581214905,
        -0.07161126285791397,
        0.2874685525894165,
        0.17649342119693756
      ],
      [
        -0.32769787311553955,
        -0.18748725950717926,
        -0.2081906795501709,
        -0.3346642851829529,
        -0.24638402462005615,
        -0.04524458572268486,
        0.36007630825042725,
        0.1917041838169098,
        -0.34969237446784973
      ],
      [
        -0.38866126537323,
        0.04959997534751892,
        -0.19386868178844452,
        0.04840466380119324,
        0.2290550321340561,
        -0.1897299587726593,
        0.09598389267921448,
        -0.0883934423327446,
        -0.059810128062963486
      ],
      [
        -0.2686905562877655,
        -0.1860901564359665,
        -0.27474209666252136,
        -0.12062156200408936,
        0.33708372712135315,
        -0.20576155185699463,
        -0.2629632353782654,
        0.003455882892012596,
        -0.00570284528657794
      ],
      [
        0.2435406744480133,
        0.2884591519832611,
        0.2133926898241043,
        -0.35172638297080994,
        0.04490174725651741,
        0.24859373271465302,
        -0.09367398917675018,
        -0.16744934022426605,
        0.18021506071090698
      ],
      [
        -0.047335345298051834,
        -0.26873132586479187,
        -0.25659969449043274,
        -0.014783713035285473,
        0.17200244963169098,
        0.1408735066652298,
        -0.044747136533260345,
        -0.1977265179157257,
        -0.2770218849182129
      ],
      [
        0.04504575952887535,
        0.24800436198711395,
        0.20443570613861084,
        -0.15833382308483124,
        -0.023092757910490036,
        -0.22756409645080566,
        -0.1420159488916397,
        0.09804674237966537,
        0.2120187133550644
      ],
      [
        0.21277417242527008,
        -0.22434039413928986,
        0.16418808698654175,
        -0.28451380133628845,
        0.06849957257509232,
        0.21835105121135712,
        -0.0439990870654583,
        0.38631671667099,
        -0.3114311993122101
      ],
      [
        -0.059708189219236374,
        0.15477333962917328,
        -0.02617245353758335,
        -0.043509528040885925,
        -0.09794583171606064,
        0.2867254912853241,
        0.06034970283508301,
        0.026246298104524612,
        -0.19083483517169952
      ],
      [
        -0.39222756028175354,
        0.09397973865270615,
        0.03160605952143669,
        -0.1809101104736328,
        -0.1477404534816742,
        0.1376449167728424,
        0.16114310920238495,
        0.15765157341957092,
        -0.014082110486924648
      ],
      [
        -0.21937847137451172,
        -0.4238244295120239,
        -0.11714919656515121,
        -0.13996504247188568,
        0.14187678694725037,
        -0.04663438722491264,
        -0.1492297500371933,
        0.21042756736278534,
        0.19557778537273407
      ],
      [
        0.15459534525871277,
        -0.22578033804893494,
        -0.12292642891407013,
        0.20052646100521088,
        -0.18050749599933624,
        -0.2710734009742737,
        0.02531852386891842,
        -0.1690807342529297,
        -0.22340522706508636
      ],
      [
        0.11801879107952118,
        0.23649431765079498,
        0.023047365248203278,
        -0.08614027500152588,
        -0.337213933467865,
        -0.1545296162366867,
        0.194896399974823,
        0.2799367308616638,
        -0.07241552323102951
      ],
      [
        -0.23328256607055664,
        0.2252798080444336,
        -0.2696753740310669,
        0.24039344489574432,
        -0.12143728137016296,
        -0.029432665556669235,
        0.01020570658147335,
        0.10897413641214371,
        -0.13202375173568726
      ],
      [
        0.1765463501214981,
        -0.03273458406329155,
        0.20230959355831146,
        0.2649681270122528,
        -0.21792232990264893,
        -0.3015618324279785,
        0.36045289039611816,
        0.2298651933670044,
        -0.29511675238609314
      ],
      [
        0.09069255739450455,
        -0.4643488824367523,
        -0.21730230748653412,
        0.061984531581401825,
        0.1280987411737442,
        0.1465098261833191,
        -0.1453665941953659,
        0.1849766969680786,
        0.17302662134170532
      ],
      [
        -0.11107722669839859,
        0.008297896012663841,
        0.12444457411766052,
        0.06544224917888641,
        -0.21604983508586884,
        0.19686564803123474,
        -0.15562409162521362,
        -0.20463742315769196,
        -0.2426735758781433
      ],
      [
        0.4406262934207916,
        0.2543628215789795,
        0.4095960557460785,
        0.21881118416786194,
        0.3512301445007324,
        0.07803897559642792,
        -0.11869481205940247,
        0.25502681732177734,
        -0.2371734231710434
      ],
      [
        -0.14784343540668488,
        -0.1797831952571869,
        0.08180265873670578,
        0.09513215720653534,
        -0.15253618359565735,
        -0.1381334513425827,
        -0.06580790132284164,
        -0.13066205382347107,
        -0.23693415522575378
      ],
      [
        0.29342028498649597,
        -0.1250942349433899,
        0.4064364433288574,
        0.28785544633865356,
        0.18289892375469208,
        0.23057043552398682,
        -0.04014546424150467,
        0.11533879488706589,
        -0.04089789837598801
      ],
      [
        0.12273500114679337,
        0.1764773428440094,
        0.40590670704841614,
        -0.0619465596973896,
        -0.05669983848929405,
        0.028829779475927353,
        -0.08649102598428726,
        0.14385098218917847,
        0.2542610764503479
      ],
      [
        0.3661688566207886,
        0.029435481876134872,
        -0.1886701136827469,
        -0.16710364818572998,
        -0.027969976887106895,
        0.012263939715921879,
        -0.034199170768260956,
        -0.214858740568161,
        0.11704205721616745
      ],
      [
        -0.1725376546382904,
        -0.29672497510910034,
        -0.24640628695487976,
        0.2633165121078491,
        -0.29980313777923584,
        0.3034769296646118,
        -0.10646402090787888,
        -0.00187195953913033,
        0.27781957387924194
      ],
      [
        -0.11088763922452927,
        0.19958630204200745,
        0.1862671971321106,
        -0.3276618421077728,
        0.07787980884313583,
        -0.000707921280991286,
        0.19703665375709534,
        0.04710035026073456,
        0.11237107217311859
      ],
      [
        -0.08305636793375015,
        -0.11041446775197983,
        0.3533957898616791,
        0.11593698710203171,
        -0.00917917862534523,
        -0.2519988417625427,
        -0.014170784503221512,
        -0.15010744333267212,
        0.352815181016922
      ],
      [
        -0.14439721405506134,
        -0.07970938831567764,
        -0.024382896721363068,
        0.03415681794285774,
        0.3514852523803711,
        0.09013156592845917,
        0.1316768229007721,
        0.3157901465892792,
        0.3124357759952545
      ],
      [
        -0.23769588768482208,
        -0.07865168154239655,
        0.189867302775383,
        0.022425273433327675,
        0.21536438167095184,
        -0.12422356754541397,
        -0.2559581995010376,
        0.007176055572926998,
        0.09975346177816391
      ],
      [
        0.04894963651895523,
        0.20851227641105652,
        0.21146085858345032,
        0.399027556180954,
        0.038757048547267914,
        -0.359352171421051,
        -0.2588583827018738,
        -0.31982535123825073,
        -0.1805758774280548
      ],
      [
        -0.2696726620197296,
        -0.19591134786605835,
        -0.30708935856819153,
        -0.21171030402183533,
        -0.3322241008281708,
        -0.1954377144575119,
        0.25024279952049255,
        0.40541839599609375,
        -0.17870700359344482
      ]
    ],
    "supervised.net.0.bias": [
      0.029254140332341194,
      0.2903977930545807,
      -0.198640376329422,
      -0.20876985788345337,
      0.10444117337465286,
      -0.19968397915363312,
      0.171878844499588,
      0.3723277747631073,
      0.04127856343984604,
      0.17135891318321228,
      -0.11663532257080078,
      0.0708305612206459,
      -0.0379009023308754,
      0.16869400441646576,
      0.2473369985818863,
      0.2972688674926758,
      -0.11917626112699509,
      0.10924676060676575,
      -0.09388674050569534,
      -0.298970490694046,
      -0.09908080846071243,
      -0.1607998013496399,
      0.17337048053741455,
      -0.01125385332852602,
      -0.06232225149869919,
      0.2660048305988312,
      -0.2726183533668518,
      -0.0019654787611216307,
      -0.10034125298261642,
      -0.17430615425109863,
      -0.14502383768558502,
      -0.09934895485639572,
      0.30734461545944214,
      0.34497442841529846,
      0.1370278000831604,
      -0.0904582142829895,
      -0.12416701018810272,
      0.389017254114151,
      0.19401635229587555,
      0.07638531178236008,
      0.02294917404651642,
      -0.27782177925109863,
      -0.1774115413427353,
      0.3288237750530243,
      0.02596537582576275,
      -0.06945046782493591,
      -0.32349511981010437,
      -0.22883903980255127,
      0.07238908112049103,
      -0.24657875299453735,
      0.037642624229192734,
      0.11968773603439331,
      -0.20995986461639404,
      0.04434475302696228,
      -0.10912726819515228,
      -0.03331197053194046,
      0.2166612595319748,
      0.223567396402359,
      -0.1437777429819107,
      -0.20814920961856842,
      -0.35315823554992676,
      -0.05424444377422333,
      -0.28050872683525085,
      -0.009951265528798103
    ],
    "supervised.net.2.weight": [
      [
        0.1268301010131836,
        -0.24227368831634521,
        0.06253489851951599,
        0.012594003230333328,
        -0.15987633168697357,
        -0.1437770426273346,
        0.1574799120426178,
        -0.09882394224405289,
        0.03431795910000801,
        -0.14421947300434113,
        0.025433257222175598,
        -0.144040048122406,
        0.017538178712129593,
        -0.062470726668834686,
        0.12148664891719818,
        0.06594844907522202,
        -0.14770367741584778,
        -0.16556160151958466,
        0.08482605218887329,
        0.05490552634000778,
        -0.041185054928064346,
        0.15157002210617065,
        -0.07222762703895569,
        -0.022051174193620682,
        0.15182343125343323,
        0.10139374434947968,
        0.11177308112382889,
        -0.09575178474187851,
        0.04901077225804329,
        -0.2148614525794983,
        0.06750740855932236,
        -0.0057454658672213554,
        0.18566016852855682,
        0.055019959807395935,
        -0.21351200342178345,
        0.18960891664028168,
        -0.10776551812887192,
        -0.1135111153125763,
        -0.18159621953964233,
        0.07566308230161667,
        0.03217236325144768,
        0.02232898212969303,
        0.005997885949909687,
        0.010585312731564045,
        -0.15125197172164917,
        0.05268651619553566,
        -0.07901321351528168,
        -0.0418439544737339,
        -0.18660101294517517,
        -0.037935711443424225,
        0.11632204055786133,
        0.0720936730504036,
        0.11464396864175797,
        0.048242103308439255,
        0.1181923896074295,
        0.1879810094833374,
        0.18774156272411346,
        0.04901886731386185,
        -0.0946238785982132,
        0.021433470770716667,
        -0.04123596474528313,
        -0.18004754185676575,
        -0.18561376631259918,
        -0.1756662279367447
      ]
    ],
    "supervised.net.2.bias": [
      0.08021512627601624
    ],
    "reinforcement.net.0.weight": [
      [
        -0.3126545548439026,
        0.1803463101387024,
        0.06379804760217667,
        -0.3304845988750458,
        0.04964681342244148,
        -0.047522976994514465,
        0.1941644698381424,
        0.23438210785388947,
        -0.37142062187194824
      ],
      [
        0.3459027409553528,
        0.23853373527526855,
        0.17157872021198273,
        -0.26702776551246643,
        -0.0805586501955986,
        -0.05640837922692299,
        -0.046472806483507156,
        0.14688138663768768,
        0.15441209077835083
      ],
      [
        0.22388476133346558,
        -0.08413048088550568,
        0.07393544912338257,
        0.08473477512598038,
        -0.31529390811920166,
        -0.36192262172698975,
        -0.2124892771244049,
        0.2698787450790405,
        -0.350974977016449
      ],
      [
        -0.26497960090637207,
        0.16230455040931702,
        0.20287930965423584,
        0.2919493317604065,
        -0.22731231153011322,
        -0.2186269760131836,
        0.14639991521835327,
        0.2637281119823456,
        0.18790984153747559
      ],
      [
        0.01421295665204525,
        0.14492514729499817,
        0.27973562479019165,
        -0.24964652955532074,
        -0.18732883036136627,
        0.19501768052577972,
        -0.26664501428604126,
        -0.21934886276721954,
        0.28075599670410156
      ],
      [
        0.14224424958229065,
        0.07497557252645493,
        -0.10601649433374405,
        0.01678295247256756,
        0.3391435742378235,
        -0.16368553042411804,
        0.03473493456840515,
        0.12356670945882797,
        -0.19800525903701782
      ],
      [
        0.283223420381546,
        -0.14170879125595093,
        -0.11813231557607651,
        -0.12727661430835724,
        -0.2551402747631073,
        -0.36509907245635986,
        0.2252049744129181,
        0.12943734228610992,
        -0.3518829941749573
      ],
      [
        -0.25538888573646545,
        0.3544396162033081,
        0.08782219141721725,
        0.09877388179302216,
        -0.2382408231496811,
        -0.18675072491168976,
        -0.09196135401725769,
        -0.07968616485595703,
        -0.26295480132102966
      ],
      [
        -0.01202822383493185,
        0.041696563363075256,
        -0.07948417216539383,
        0.010588081553578377,
        -0.16885830461978912,
        0.04808195307850838,
        0.16521358489990234,
        -0.21052077412605286,
        -0.3679201900959015
      ],
      [
        0.21985162794589996,
        0.03530622273683548,
        -0.12459439039230347,
        0.34978923201560974,
        -0.10664582252502441,
        0.2665741443634033,
        0.1273733377456665,
        -0.23414315283298492,
        0.1719493865966797
      ],
      [
        -0.2691464424133301,
        -0.22152858972549438,
        -0.020017782226204872,
        -0.22059112787246704,
        0.35953694581985474,
        -0.0299555491656065,
        0.0985073521733284,
        -0.26159918308258057,
        0.15158390998840332
      ],
      [
        -0.06721414625644684,
        -0.22596758604049683,
        0.08281806856393814,
        0.1266651600599289,
        0.31928735971450806,
        -0.16848738491535187,
        -0.13016854226589203,
        0.09825354814529419,
        0.06980447471141815
      ],
      [
        0.09105681627988815,
        0.21958544850349426,
        -0.10997803509235382,
        0.15588857233524323,
        0.21189773082733154,
        -0.12213469296693802,
        0.2751379609107971,
        0.1796843409538269,
        0.3222886323928833
      ],
      [
        -0.2234736531972885,
        -0.1917988806962967,
        -0.12616713345050812,
        0.05061426758766174,
        0.19475577771663666,
        -0.2229081243276596,
        0.1959199607372284,
        -0.15262360870838165,
        0.19792397320270538
      ],
      [
        -0.05887538567185402,
        -0.3294850289821625,
        -0.22514498233795166,
        -0.2809249460697174,
        0.12395975738763809,
        -0.26562538743019104,
        -0.07041992992162704,
        0.11576232314109802,
        -0.22405700385570526
      ],
      [
        0.05664282292127609,
        -0.3486768305301666,
        -0.2764401435852051,
        -0.3388761579990387,
        -0.13844458758831024,
        -0.16006191074848175,
        0.00759002473205328,
        -0.06988347321748734,
        0.12152884155511856
      ],
      [
        0.3457905650138855,
        0.08083482086658478,
        -0.09227779507637024,
        -0.2740805149078369,
        0.15940068662166595,
        -0.1248273104429245,
        0.13565987348556519,
        0.18424685299396515,
        0.16460494697093964
      ],
      [
        0.3583351969718933,
        0.27123260498046875,
        0.11568368971347809,
        -0.20213006436824799,
        0.3424994945526123,
        -0.11267615854740143,
        -0.11230699717998505,
        0.23371119797229767,
        0.21336738765239716
      ],
      [
        0.14561022818088531,
        0.05984228849411011,
        -0.23669612407684326,
        0.006250548642128706,
        0.3627571165561676,
        0.13003353774547577,
        0.05439762771129608,
        -0.1016002967953682,
        -0.15883463621139526
      ],
      [
        0.1631566286087036,
        0.05372810736298561,
        0.1820887327194214,
        -0.09358400851488113,
        0.11086451262235641,
        0.10304703563451767,
        0.05534273758530617,
        0.24313198029994965,
        0.22079448401927948
      ],
      [
        0.2729072570800781,
        0.2906128764152527,
        -0.12009941041469574,
        -0.3151754140853882,
        0.026641791686415672,
        -0.039461296051740646,
        -0.1241307407617569,
        -0.018778366968035698,
        -0.005432475823909044
      ],
      [
        0.28487828373908997,
        0.06385723501443863,
        -0.07854333519935608,
        -0.10021083056926727,
        -0.04365361109375954,
        -0.08681578189134598,
        0.25917693972587585,
        0.13594722747802734,
        0.30806538462638855
      ],
      [
        0.036535583436489105,
        0.03356272727251053,
        0.14903217554092407,
        -0.2884269654750824,
        0.06200561299920082,
        0.012952749617397785,
        -0.1519341617822647,
        -0.2234054058790207,
        0.28235524892807007
      ],
      [
        0.313167929649353,
        0.11519243568181992,
        0.3595740795135498,
        -0.0953025221824646,
        -0.01647149957716465,
        0.16836389899253845,
        -0.01345708966255188,
        -0.09739408642053604,
        -0.3146403431892395
      ],
      [
        0.049094460904598236,
        -0.1597343385219574,
        -0.026876652613282204,
        0.3648533821105957,
        -0.13992328941822052,
        -0.1448836475610733,
        0.21463632583618164,
        -0.16190141439437866,
        -0.06445103883743286
      ],
      [
        0.34896525740623474,
        -0.17348797619342804,
        -0.20156314969062805,
        -0.15090811252593994,
        -0.05586237087845802,
        -0.12056703865528107,
        -0.1354351043701172,
        0.09840577095746994,
        0.09019256383180618
      ],
      [
        -0.14860272407531738,
        -0.21817219257354736,
        -0.14496305584907532,
        -0.1758710891008377,
        -0.1475832164287567,
        -0.3420116901397705,
        0.04009478911757469,
        -0.28480657935142517,
        -0.29929840564727783
      ],
      [
        -0.31214678287506104,
        0.17514637112617493,
        -0.23974525928497314,
        -0.17565122246742249,
        0.22261962294578552,
        0.13696767389774323,
        0.23024535179138184,
        -0.35531026124954224,
        -0.27620986104011536
      ],
      [
        -0.16583466529846191,
        0.31396979093551636,
        -0.003937439061701298,
        -0.2846924364566803,
        -0.03532455489039421,
        -0.29807668924331665,
        -0.11330941319465637,
        -0.12968409061431885,
        0.33059462904930115
      ],
      [
        0.14360684156417847,
        -0.09962787479162216,
        0.09501293301582336,
        -0.06100834533572197,
        0.16872699558734894,
        0.17229540646076202,
        0.05676180124282837,
        -0.09213489294052124,
        0.3183850347995758
      ],
      [
        -0.0031959793996065855,
        -0.15902143716812134,
        0.2497478425502777,
        0.2720145285129547,
        0.36888575553894043,
        0.14108160138130188,
        -0.07025362551212311,
        0.1948438137769699,
        0.24063199758529663
      ],
      [
        -0.36899954080581665,
        -7.69064063206315e-05,
        -0.2661088705062866,
        0.03504765406250954,
        0.10107214003801346,
        -0.11022214591503143,
        -0.05157753825187683,
        0.13189110159873962,
        -0.09249400347471237
      ]
    ],
    "reinforcement.net.0.bias": [
      -0.23795591294765472,
      0.26789599657058716,
      -0.12805478274822235,
      -0.060927730053663254,
      -0.0035191643983125687,
      -0.048123136162757874,
      -0.27548947930336,
      0.19328314065933228,
      -0.11338141560554504,
      -0.12664465606212616,
      0.04430141672492027,
      -0.20657069981098175,
      -0.16658321022987366,
      -0.07676204293966293,
      -0.08277993649244308,
      -0.10061496496200562,
      -0.04660769924521446,
      0.1188305914402008,
      -0.2256011664867401,
      -0.23616056144237518,
      0.03602570295333862,
      0.04653562605381012,
      0.15734229981899261,
      -0.1919124275445938,
      0.14565418660640717,
      0.1609773337841034,
      0.2264983057975769,
      -0.2708125114440918,
      -0.08752725273370743,
      -0.24549469351768494,
      -0.16600781679153442,
      0.22790320217609406
    ],
    "reinforcement.net.2.weight": [
      [
        -0.06593775749206543,
        0.10962152481079102,
        -0.14290820062160492,
        -0.010962367989122868,
        -0.1167922243475914,
        0.07142902165651321,
        -0.11495502293109894,
        -0.08299228549003601,
        -0.19311195611953735,
        0.043233007192611694,
        0.1309124380350113,
        0.0498201884329319,
        -0.07698999345302582,
        -0.03762967139482498,
        -0.05859449878334999,
        -0.18059276044368744,
        0.18208684027194977,
        0.04389485716819763,
        0.08264921605587006,
        -0.035757824778556824,
        -0.051600128412246704,
        0.05802428722381592,
        0.033157601952552795,
        0.08056822419166565,
        -0.12703785300254822,
        0.1544318050146103,
        -0.063992939889431,
        -0.1475280523300171,
        -0.12200842052698135,
        0.21527962386608124,
        0.03928881138563156,
        -0.0628734827041626
      ]
    ],
    "reinforcement.net.2.bias": [
      -0.10951698571443558
    ]
  }
}