{
  "full_pred_dir": "/home/wangzhe/DroneP_VG/visdrone_test_100/groundingdino_threshold_search/bt_0p20_tt_0p20_nms_0p40/preds",
  "sw_pred_dir": "/home/wangzhe/DroneP_VG/project_records/results/predictions/sw_grid_20260318_cfg02",
  "gt_dir": "/home/wangzhe/DroneP_VG/visdrone_test_100/annotations",
  "output_pred_dir": "/home/wangzhe/DroneP_VG/project_records/results/predictions/fusion_stageA_hybrid_sl_rl_recall90_20260318",
  "sl_epochs": 60,
  "rl_epochs": 60,
  "lr": 0.002,
  "rl_lr": 0.001,
  "hidden_dim": 64,
  "rl_hidden_dim": 32,
  "rl_scale": 1.5,
  "rl_entropy_coef": 0.001,
  "rl_reward_mode": "acc05_map_proxy_gain",
  "rl_reward_acc05_weight": 0.9,
  "rl_reward_threshold": 0.3,
  "rl_reward_nms_iou": 0.6,
  "rl_early_stop_patience": 8,
  "rl_early_stop_min_delta": 0.0002,
  "best_checkpoint": "/home/wangzhe/DroneP_VG/project_records/results/metrics/lightweight_optimization/external_calibrator_stageA_hybrid_sl_rl_recall90_20260318_best_rl.pt",
  "best_rl_epoch": 58,
  "best_val_objective": 0.4251820307516609,
  "best_val_acc05": 0.4343127287031062,
  "best_val_map_proxy": 0.3430057491886529,
  "weight_decay": 5e-05,
  "nms_iou": 0.7,
  "score_threshold": 0.1,
  "search_min_threshold": 0.1,
  "search_max_threshold": 0.4,
  "search_threshold_step": 0.02,
  "search_nms_candidates": [
    0.4,
    0.5,
    0.6,
    0.7
  ],
  "progress_log": "/home/wangzhe/DroneP_VG/project_records/results/metrics/lightweight_optimization/external_calibrator_stageA_hybrid_sl_rl_recall90_20260318_progress.tsv",
  "split": {
    "train_stems": [
      "002_VisDrone2019-DET-train_0000279_03601_d_0000600",
      "003_VisDrone2019-DET-test_0000120_03922_d_0000100",
      "006_VisDrone2019-DET-train_9999962_00000_d_0000070",
      "007_VisDrone2019-DET-test_9999963_00000_d_0000074",
      "008_VisDrone2019-DET-train_0000222_05666_d_0000018",
      "009_VisDrone2019-DET-test_0000073_01275_d_0000002",
      "010_VisDrone2019-DET-train_9999962_00000_d_0000150",
      "011_VisDrone2019-DET-train_9999945_00000_d_0000008",
      "013_VisDrone2019-DET-train_0000308_00401_d_0000307",
      "016_VisDrone2019-DET-train_9999999_00189_d_0000078",
      "017_VisDrone2019-DET-train_9999999_00279_d_0000122",
      "019_VisDrone2019-DET-train_0000334_01177_d_0000027",
      "020_VisDrone2019-DET-train_9999998_00304_d_0000257",
      "021_VisDrone2019-DET-train_0000002_00448_d_0000015",
      "022_VisDrone2019-DET-train_9999965_00000_d_0000035",
      "023_VisDrone2019-DET-train_9999942_00000_d_0000164",
      "024_VisDrone2019-DET-train_0000003_00231_d_0000016",
      "025_VisDrone2019-DET-test_9999963_00000_d_0000058",
      "027_VisDrone2019-DET-train_9999956_00000_d_0000097",
      "031_VisDrone2019-DET-val_0000276_00601_d_0000510",
      "033_VisDrone2019-DET-train_9999962_00000_d_0000142",
      "034_VisDrone2019-DET-train_9999940_00000_d_0000002",
      "035_VisDrone2019-DET-train_9999982_00000_d_0000075",
      "037_VisDrone2019-DET-train_9999998_00107_d_0000085",
      "038_VisDrone2019-DET-train_0000007_05999_d_0000038",
      "039_VisDrone2019-DET-train_9999974_00000_d_0000016",
      "040_VisDrone2019-DET-train_0000008_00889_d_0000039",
      "041_VisDrone2019-DET-train_0000008_01999_d_0000040",
      "042_VisDrone2019-DET-train_0000008_02499_d_0000041",
      "043_VisDrone2019-DET-train_9999951_00000_d_0000059",
      "044_VisDrone2019-DET-test_0000127_00002_d_0000119",
      "045_VisDrone2019-DET-test_9999941_00000_d_0000004",
      "046_VisDrone2019-DET-train_9999967_00000_d_0000004",
      "047_VisDrone2019-DET-train_9999994_00000_d_0000097",
      "048_VisDrone2019-DET-val_0000330_02201_d_0000811",
      "049_VisDrone2019-DET-train_0000008_02999_d_0000042",
      "050_VisDrone2019-DET-train_9999950_00000_d_0000031",
      "051_VisDrone2019-DET-val_0000330_04001_d_0000820",
      "052_VisDrone2019-DET-train_0000008_03499_d_0000043",
      "053_VisDrone2019-DET-test_9999973_00000_d_0000076",
      "056_VisDrone2019-DET-train_9999982_00000_d_0000060",
      "057_VisDrone2019-DET-train_9999966_00000_d_0000102",
      "059_VisDrone2019-DET-test_9999973_00000_d_0000108",
      "060_VisDrone2019-DET-train_0000008_03999_d_0000044",
      "061_VisDrone2019-DET-train_9999955_00000_d_0000159",
      "062_VisDrone2019-DET-train_9999981_00000_d_0000017",
      "063_VisDrone2019-DET-train_0000008_04499_d_0000045",
      "064_VisDrone2019-DET-train_9999951_00000_d_0000261",
      "066_VisDrone2019-DET-train_0000010_00569_d_0000056",
      "067_VisDrone2019-DET-train_9999945_00000_d_0000013",
      "068_VisDrone2019-DET-train_9999982_00000_d_0000173",
      "069_VisDrone2019-DET-train_0000257_00249_d_0000043",
      "071_VisDrone2019-DET-train_0000010_05149_d_0000057",
      "073_VisDrone2019-DET-train_9999999_00440_d_0000195",
      "074_VisDrone2019-DET-train_9999984_00000_d_0000082",
      "075_VisDrone2019-DET-train_9999998_00151_d_0000127",
      "077_VisDrone2019-DET-val_0000356_04705_d_0000653",
      "079_VisDrone2019-DET-train_9999969_00000_d_0000044",
      "080_VisDrone2019-DET-train_9999955_00000_d_0000062",
      "081_VisDrone2019-DET-test_9999952_00000_d_0000169",
      "083_VisDrone2019-DET-val_0000291_02001_d_0000878",
      "084_VisDrone2019-DET-train_9999998_00031_d_0000024",
      "086_VisDrone2019-DET-train_9999982_00000_d_0000200",
      "088_VisDrone2019-DET-test_9999938_00000_d_0000365",
      "091_VisDrone2019-DET-train_0000013_00465_d_0000067",
      "092_VisDrone2019-DET-train_9999972_00000_d_0000032",
      "093_VisDrone2019-DET-train_0000016_00420_d_0000068",
      "097_VisDrone2019-DET-test_9999952_00000_d_0000059",
      "099_VisDrone2019-DET-train_0000084_00281_d_0000002",
      "100_VisDrone2019-DET-train_0000030_00754_d_0000036"
    ],
    "val_stems": [
      "001_VisDrone2019-DET-train_0000002_00005_d_0000014",
      "026_VisDrone2019-DET-train_0000007_04999_d_0000036",
      "028_VisDrone2019-DET-test_9999973_00000_d_0000049",
      "030_VisDrone2019-DET-train_9999951_00000_d_0000168",
      "054_VisDrone2019-DET-train_0000260_00441_d_0000104",
      "058_VisDrone2019-DET-test_9999941_00000_d_0000006",
      "065_VisDrone2019-DET-train_9999955_00000_d_0000181",
      "072_VisDrone2019-DET-train_0000010_05291_d_0000058",
      "078_VisDrone2019-DET-train_9999945_00000_d_0000047",
      "085_VisDrone2019-DET-train_9999966_00000_d_0000054",
      "089_VisDrone2019-DET-train_9999937_00000_d_0000182",
      "090_VisDrone2019-DET-train_0000124_02088_d_0000121",
      "094_VisDrone2019-DET-test_9999938_00000_d_0000472",
      "096_VisDrone2019-DET-train_0000261_00001_d_0000120",
      "098_VisDrone2019-DET-train_0000016_01352_d_0000069"
    ],
    "test_stems": [
      "004_VisDrone2019-DET-train_9999990_00000_d_0000025",
      "005_VisDrone2019-DET-test_9999976_00000_d_0000013",
      "012_VisDrone2019-DET-train_9999951_00000_d_0000334",
      "014_VisDrone2019-DET-train_9999951_00000_d_0000079",
      "015_VisDrone2019-DET-test_9999938_00000_d_0000209",
      "018_VisDrone2019-DET-test_9999986_00000_d_0000021",
      "029_VisDrone2019-DET-train_9999998_00308_d_0000261",
      "032_VisDrone2019-DET-train_0000007_05499_d_0000037",
      "036_VisDrone2019-DET-test_9999952_00000_d_0000232",
      "055_VisDrone2019-DET-test_9999938_00000_d_0000453",
      "070_VisDrone2019-DET-train_9999953_00000_d_0000227",
      "076_VisDrone2019-DET-train_9999998_00405_d_0000357",
      "082_VisDrone2019-DET-train_9999998_00395_d_0000347",
      "087_VisDrone2019-DET-train_9999943_00000_d_0000059",
      "095_VisDrone2019-DET-test_9999973_00000_d_0000105"
    ]
  },
  "num_stems": 100,
  "num_samples": 8469,
  "num_train_samples": 6241,
  "num_val_samples": 1366,
  "num_test_samples": 862,
  "num_output_boxes": 5667,
  "train_time_sec": 42.238760471343994,
  "test_cls_loss": 0.7039796113967896,
  "test_cls_acc": 0.6276102066040039,
  "test_det_acc05": 0.2990353697749196,
  "feature_mean": [
    0.336618572473526,
    0.5672168135643005,
    3.5971508026123047,
    3.5907177925109863,
    7.187868118286133,
    0.00643285783007741,
    0.31259676814079285,
    0.40563666820526123,
    0.3834131360054016
  ],
  "feature_std": [
    0.10275804251432419,
    0.49550101161003113,
    0.784238338470459,
    0.6879025101661682,
    1.3506585359573364,
    0.5934651494026184,
    0.12713871896266937,
    0.20470453798770905,
    0.2784765958786011
  ],
  "state_dict": {
    "supervised.net.0.weight": [
      [
        0.37593960762023926,
        0.38547083735466003,
        0.007812938652932644,
        0.2886718809604645,
        -0.007587595377117395,
        0.17349457740783691,
        -0.14930623769760132,
        0.22769638895988464,
        0.28490692377090454
      ],
      [
        -0.351805716753006,
        0.21958550810813904,
        0.0017218968132510781,
        0.23341429233551025,
        -0.004943475592881441,
        0.08548600226640701,
        0.05648782104253769,
        0.18120679259300232,
        0.04150595888495445
      ],
      [
        -0.0812704861164093,
        0.08715365082025528,
        -0.1307024359703064,
        -0.00791184138506651,
        -0.10942104458808899,
        0.23252372443675995,
        -0.24728113412857056,
        -0.11549682170152664,
        -0.12653471529483795
      ],
      [
        -0.14001688361167908,
        -0.03566218540072441,
        -0.2950410842895508,
        0.34645020961761475,
        -0.2437051683664322,
        0.26129868626594543,
        -0.030654963105916977,
        -0.0562710203230381,
        0.10943355411291122
      ],
      [
        -0.035071272403001785,
        0.20723848044872284,
        -0.013966337777674198,
        -0.13921841979026794,
        0.04328330233693123,
        -0.14905430376529694,
        0.2722953259944916,
        0.3886227309703827,
        0.10697852820158005
      ],
      [
        -0.2558467388153076,
        0.16462603211402893,
        0.10135995596647263,
        0.29803502559661865,
        -0.13034987449645996,
        -0.3636612296104431,
        -0.09935172647237778,
        -0.3765067458152771,
        0.36793339252471924
      ],
      [
        0.21390870213508606,
        0.2116830050945282,
        0.19206908345222473,
        -0.10632229596376419,
        0.30595824122428894,
        -0.12814545631408691,
        -0.04591219499707222,
        -0.10931503027677536,
        0.10335593670606613
      ],
      [
        -0.22786612808704376,
        0.03414009138941765,
        -0.04445412755012512,
        0.3413615822792053,
        -0.15490147471427917,
        -0.2379360795021057,
        -0.15460383892059326,
        0.3190746009349823,
        3.260537050664425e-05
      ],
      [
        0.27727043628692627,
        -0.2352588027715683,
        -0.37929344177246094,
        -0.28987711668014526,
        -0.26766878366470337,
        0.07109290361404419,
        0.14144958555698395,
        0.28758805990219116,
        -0.19379200041294098
      ],
      [
        -0.3317510485649109,
        0.07316424697637558,
        -0.1138034388422966,
        0.28903254866600037,
        -0.027043011039495468,
        0.12115025520324707,
        -0.29234763979911804,
        -0.28152093291282654,
        0.15595975518226624
      ],
      [
        0.15624400973320007,
        -0.17085795104503632,
        0.2653367221355438,
        0.24938715994358063,
        -0.1847429722547531,
        -0.09283855557441711,
        0.22096040844917297,
        -0.02646637335419655,
        -0.13654792308807373
      ],
      [
        -0.42637789249420166,
        -0.10447322577238083,
        0.08125463873147964,
        0.018447376787662506,
        -0.21512913703918457,
        -0.055901966989040375,
        -0.21019041538238525,
        -0.3826334476470947,
        -0.16034956276416779
      ],
      [
        -0.21540366113185883,
        -0.315947562456131,
        0.3753707706928253,
        -0.040132179856300354,
        0.11912313103675842,
        -0.24760708212852478,
        -0.2004833072423935,
        -0.038094695657491684,
        0.08073893189430237
      ],
      [
        -0.39079082012176514,
        -0.095394566655159,
        -0.09707190096378326,
        0.12712372839450836,
        -0.007178003434091806,
        -0.06779499351978302,
        -0.12349829822778702,
        -0.3257841169834137,
        -0.10387174040079117
      ],
      [
        0.008322425186634064,
        -0.20809680223464966,
        0.37977471947669983,
        -0.03283773735165596,
        0.37951943278312683,
        0.21148574352264404,
        -0.3003230094909668,
        0.2252144068479538,
        0.009963609278202057
      ],
      [
        -0.043686192482709885,
        -0.35853439569473267,
        -0.28774183988571167,
        0.09184600412845612,
        -0.041642382740974426,
        0.1934104859828949,
        -0.2614852488040924,
        0.22130128741264343,
        -0.18645237386226654
      ],
      [
        -0.18502898514270782,
        -0.047872379422187805,
        0.1661878079175949,
        0.39349308609962463,
        0.3525349199771881,
        -0.3698861300945282,
        0.2143843024969101,
        -0.272327184677124,
        -0.06991089880466461
      ],
      [
        -0.35863450169563293,
        0.23490038514137268,
        -0.24814248085021973,
        0.22342869639396667,
        0.1313656121492386,
        0.06388367712497711,
        -0.12628130614757538,
        0.35024744272232056,
        0.11638441681861877
      ],
      [
        0.10801339894533157,
        -0.3362160623073578,
        0.18832135200500488,
        -0.07173393666744232,
        -0.11372937262058258,
        0.3449350595474243,
        0.0059937904588878155,
        -0.12849098443984985,
        -0.15955094993114471
      ],
      [
        0.0540139339864254,
        0.2220146209001541,
        -0.06680336594581604,
        -0.1653900295495987,
        -0.09333181381225586,
        -0.24025122821331024,
        0.014311295002698898,
        0.15607023239135742,
        -0.2634689509868622
      ],
      [
        0.0035116192884743214,
        0.12927448749542236,
        0.0008342510554939508,
        -0.14354586601257324,
        0.12155608832836151,
        0.10379185527563095,
        0.22539456188678741,
        -0.08396635949611664,
        -0.05176462233066559
      ],
      [
        0.1607937216758728,
        -0.09110990911722183,
        0.015457035042345524,
        0.19401594996452332,
        0.38278746604919434,
        0.09383375197649002,
        -0.07380465418100357,
        0.12345331162214279,
        0.06265327334403992
      ],
      [
        -0.0022152778692543507,
        0.025086326524615288,
        -0.3566835820674896,
        -0.13005037605762482,
        0.23760908842086792,
        0.058151185512542725,
        0.03518637642264366,
        -0.2600647211074829,
        -0.21251577138900757
      ],
      [
        -0.2414560765028,
        -0.08224885165691376,
        0.14803433418273926,
        0.13093987107276917,
        0.1744346171617508,
        -0.2461930215358734,
        -0.1800769865512848,
        0.0011906219879165292,
        0.3559759855270386
      ],
      [
        0.1730165332555771,
        -0.13878652453422546,
        0.2426457703113556,
        -0.09580349922180176,
        -0.12232346832752228,
        0.3598373234272003,
        -0.10173380374908447,
        -0.1285748928785324,
        -0.35148152709007263
      ],
      [
        0.33359649777412415,
        0.12711651623249054,
        0.18541672825813293,
        -0.24455633759498596,
        -0.2835747003555298,
        -0.18492157757282257,
        0.13122548162937164,
        0.0579531155526638,
        0.3833177089691162
      ],
      [
        0.26699504256248474,
        0.0211496502161026,
        -0.032358307391405106,
        -0.30565202236175537,
        -0.3234040141105652,
        -0.2959507703781128,
        0.008189748972654343,
        -0.12772126495838165,
        -0.09166491776704788
      ],
      [
        -0.32041311264038086,
        -0.1083977222442627,
        -0.19182884693145752,
        -0.16317620873451233,
        0.15489894151687622,
        -0.10320067405700684,
        0.3369879722595215,
        -0.13107098639011383,
        -0.3631886839866638
      ],
      [
        0.0173928365111351,
        -0.26055091619491577,
        -0.07190116494894028,
        -0.31841301918029785,
        0.20576635003089905,
        -0.1827007681131363,
        0.06789743900299072,
        0.06555981934070587,
        0.31866785883903503
      ],
      [
        -0.37010371685028076,
        0.2374243438243866,
        -0.10463052988052368,
        0.25387489795684814,
        0.4128166437149048,
        -0.13503623008728027,
        0.1302197426557541,
        -0.18591660261154175,
        -0.23464353382587433
      ],
      [
        0.22048412263393402,
        -0.45164579153060913,
        0.22214718163013458,
        0.1340199112892151,
        0.2877053916454315,
        -0.031404368579387665,
        -0.27337878942489624,
        0.1340729147195816,
        0.25576069951057434
      ],
      [
        -0.27720907330513,
        -0.03835248947143555,
        -0.1725512444972992,
        -0.04754840210080147,
        -0.14744949340820312,
        -0.09341151267290115,
        -0.08188331872224808,
        -0.2637544572353363,
        0.2385779619216919
      ],
      [
        0.3797209858894348,
        -0.07975036650896072,
        0.023946918547153473,
        -0.1140088364481926,
        -0.2486656904220581,
        -0.2461680918931961,
        0.011088663712143898,
        -0.15748798847198486,
        -0.11624543368816376
      ],
      [
        0.056665074080228806,
        -0.19900886714458466,
        -0.0826975479722023,
        -0.05456499010324478,
        -0.07257325202226639,
        -0.05491569638252258,
        -0.14276990294456482,
        -0.19882097840309143,
        0.3121095299720764
      ],
      [
        -0.23540998995304108,
        0.11778134107589722,
        -0.1623687744140625,
        0.04199642315506935,
        0.2772199809551239,
        0.0871804803609848,
        -0.3142373561859131,
        0.050530631095170975,
        0.2020108550786972
      ],
      [
        0.19665968418121338,
        0.22335456311702728,
        0.41631922125816345,
        -0.020404072478413582,
        0.1473628431558609,
        -0.13185277581214905,
        -0.07161126285791397,
        0.2874685525894165,
        0.17649342119693756
      ],
      [
        -0.32769787311553955,
        -0.18748725950717926,
        -0.2081906795501709,
        -0.3346642851829529,
        -0.24638402462005615,
        -0.04524458572268486,
        0.36007630825042725,
        0.1917041838169098,
        -0.34969237446784973
      ],
      [
        -0.38866126537323,
        0.04959997534751892,
        -0.19386868178844452,
        0.04840466380119324,
        0.2290550321340561,
        -0.1897299587726593,
        0.09598389267921448,
        -0.0883934423327446,
        -0.059810128062963486
      ],
      [
        -0.2686905562877655,
        -0.1860901564359665,
        -0.27474209666252136,
        -0.12062156200408936,
        0.33708372712135315,
        -0.20576155185699463,
        -0.2629632353782654,
        0.003455882892012596,
        -0.00570284528657794
      ],
      [
        0.2435406744480133,
        0.2884591519832611,
        0.2133926898241043,
        -0.35172638297080994,
        0.04490174725651741,
        0.24859373271465302,
        -0.09367398917675018,
        -0.16744934022426605,
        0.18021506071090698
      ],
      [
        -0.047335345298051834,
        -0.26873132586479187,
        -0.25659969449043274,
        -0.014783713035285473,
        0.17200244963169098,
        0.1408735066652298,
        -0.044747136533260345,
        -0.1977265179157257,
        -0.2770218849182129
      ],
      [
        0.04504575952887535,
        0.24800436198711395,
        0.20443570613861084,
        -0.15833382308483124,
        -0.023092757910490036,
        -0.22756409645080566,
        -0.1420159488916397,
        0.09804674237966537,
        0.2120187133550644
      ],
      [
        0.21277417242527008,
        -0.22434039413928986,
        0.16418808698654175,
        -0.28451380133628845,
        0.06849957257509232,
        0.21835105121135712,
        -0.0439990870654583,
        0.38631671667099,
        -0.3114311993122101
      ],
      [
        -0.059708189219236374,
        0.15477333962917328,
        -0.02617245353758335,
        -0.043509528040885925,
        -0.09794583171606064,
        0.2867254912853241,
        0.06034970283508301,
        0.026246298104524612,
        -0.19083483517169952
      ],
      [
        -0.39222756028175354,
        0.09397973865270615,
        0.03160605952143669,
        -0.1809101104736328,
        -0.1477404534816742,
        0.1376449167728424,
        0.16114310920238495,
        0.15765157341957092,
        -0.014082110486924648
      ],
      [
        -0.21937847137451172,
        -0.4238244295120239,
        -0.11714919656515121,
        -0.13996504247188568,
        0.14187678694725037,
        -0.04663438722491264,
        -0.1492297500371933,
        0.21042756736278534,
        0.19557778537273407
      ],
      [
        0.15459534525871277,
        -0.22578033804893494,
        -0.12292642891407013,
        0.20052646100521088,
        -0.18050749599933624,
        -0.2710734009742737,
        0.02531852386891842,
        -0.1690807342529297,
        -0.22340522706508636
      ],
      [
        0.11801879107952118,
        0.23649431765079498,
        0.023047365248203278,
        -0.08614027500152588,
        -0.337213933467865,
        -0.1545296162366867,
        0.194896399974823,
        0.2799367308616638,
        -0.07241552323102951
      ],
      [
        -0.23328256607055664,
        0.2252798080444336,
        -0.2696753740310669,
        0.24039344489574432,
        -0.12143728137016296,
        -0.029432665556669235,
        0.01020570658147335,
        0.10897413641214371,
        -0.13202375173568726
      ],
      [
        0.1765463501214981,
        -0.03273458406329155,
        0.20230959355831146,
        0.2649681270122528,
        -0.21792232990264893,
        -0.3015618324279785,
        0.36045289039611816,
        0.2298651933670044,
        -0.29511675238609314
      ],
      [
        0.09069255739450455,
        -0.4643488824367523,
        -0.21730230748653412,
        0.061984531581401825,
        0.1280987411737442,
        0.1465098261833191,
        -0.1453665941953659,
        0.1849766969680786,
        0.17302662134170532
      ],
      [
        -0.11107722669839859,
        0.008297896012663841,
        0.12444457411766052,
        0.06544224917888641,
        -0.21604983508586884,
        0.19686564803123474,
        -0.15562409162521362,
        -0.20463742315769196,
        -0.2426735758781433
      ],
      [
        0.4406262934207916,
        0.2543628215789795,
        0.4095960557460785,
        0.21881118416786194,
        0.3512301445007324,
        0.07803897559642792,
        -0.11869481205940247,
        0.25502681732177734,
        -0.2371734231710434
      ],
      [
        -0.14784343540668488,
        -0.1797831952571869,
        0.08180265873670578,
        0.09513215720653534,
        -0.15253618359565735,
        -0.1381334513425827,
        -0.06580790132284164,
        -0.13066205382347107,
        -0.23693415522575378
      ],
      [
        0.29342028498649597,
        -0.1250942349433899,
        0.4064364433288574,
        0.28785544633865356,
        0.18289892375469208,
        0.23057043552398682,
        -0.04014546424150467,
        0.11533879488706589,
        -0.04089789837598801
      ],
      [
        0.12273500114679337,
        0.1764773428440094,
        0.40590670704841614,
        -0.0619465596973896,
        -0.05669983848929405,
        0.028829779475927353,
        -0.08649102598428726,
        0.14385098218917847,
        0.2542610764503479
      ],
      [
        0.3661688566207886,
        0.029435481876134872,
        -0.1886701136827469,
        -0.16710364818572998,
        -0.027969976887106895,
        0.012263939715921879,
        -0.034199170768260956,
        -0.214858740568161,
        0.11704205721616745
      ],
      [
        -0.1725376546382904,
        -0.29672497510910034,
        -0.24640628695487976,
        0.2633165121078491,
        -0.29980313777923584,
        0.3034769296646118,
        -0.10646402090787888,
        -0.00187195953913033,
        0.27781957387924194
      ],
      [
        -0.11088763922452927,
        0.19958630204200745,
        0.1862671971321106,
        -0.3276618421077728,
        0.07787980884313583,
        -0.000707921280991286,
        0.19703665375709534,
        0.04710035026073456,
        0.11237107217311859
      ],
      [
        -0.08305636793375015,
        -0.11041446775197983,
        0.3533957898616791,
        0.11593698710203171,
        -0.00917917862534523,
        -0.2519988417625427,
        -0.014170784503221512,
        -0.15010744333267212,
        0.352815181016922
      ],
      [
        -0.14439721405506134,
        -0.07970938831567764,
        -0.024382896721363068,
        0.03415681794285774,
        0.3514852523803711,
        0.09013156592845917,
        0.1316768229007721,
        0.3157901465892792,
        0.3124357759952545
      ],
      [
        -0.23769588768482208,
        -0.07865168154239655,
        0.189867302775383,
        0.022425273433327675,
        0.21536438167095184,
        -0.12422356754541397,
        -0.2559581995010376,
        0.007176055572926998,
        0.09975346177816391
      ],
      [
        0.04894963651895523,
        0.20851227641105652,
        0.21146085858345032,
        0.399027556180954,
        0.038757048547267914,
        -0.359352171421051,
        -0.2588583827018738,
        -0.31982535123825073,
        -0.1805758774280548
      ],
      [
        -0.2696726620197296,
        -0.19591134786605835,
        -0.30708935856819153,
        -0.21171030402183533,
        -0.3322241008281708,
        -0.1954377144575119,
        0.25024279952049255,
        0.40541839599609375,
        -0.17870700359344482
      ]
    ],
    "supervised.net.0.bias": [
      0.029254140332341194,
      0.2903977930545807,
      -0.198640376329422,
      -0.20876985788345337,
      0.10444117337465286,
      -0.19968397915363312,
      0.171878844499588,
      0.3723277747631073,
      0.04127856343984604,
      0.17135891318321228,
      -0.11663532257080078,
      0.0708305612206459,
      -0.0379009023308754,
      0.16869400441646576,
      0.2473369985818863,
      0.2972688674926758,
      -0.11917626112699509,
      0.10924676060676575,
      -0.09388674050569534,
      -0.298970490694046,
      -0.09908080846071243,
      -0.1607998013496399,
      0.17337048053741455,
      -0.01125385332852602,
      -0.06232225149869919,
      0.2660048305988312,
      -0.2726183533668518,
      -0.0019654787611216307,
      -0.10034125298261642,
      -0.17430615425109863,
      -0.14502383768558502,
      -0.09934895485639572,
      0.30734461545944214,
      0.34497442841529846,
      0.1370278000831604,
      -0.0904582142829895,
      -0.12416701018810272,
      0.389017254114151,
      0.19401635229587555,
      0.07638531178236008,
      0.02294917404651642,
      -0.27782177925109863,
      -0.1774115413427353,
      0.3288237750530243,
      0.02596537582576275,
      -0.06945046782493591,
      -0.32349511981010437,
      -0.22883903980255127,
      0.07238908112049103,
      -0.24657875299453735,
      0.037642624229192734,
      0.11968773603439331,
      -0.20995986461639404,
      0.04434475302696228,
      -0.10912726819515228,
      -0.03331197053194046,
      0.2166612595319748,
      0.223567396402359,
      -0.1437777429819107,
      -0.20814920961856842,
      -0.35315823554992676,
      -0.05424444377422333,
      -0.28050872683525085,
      -0.009951265528798103
    ],
    "supervised.net.2.weight": [
      [
        0.1268301010131836,
        -0.24227368831634521,
        0.06253489851951599,
        0.012594003230333328,
        -0.15987633168697357,
        -0.1437770426273346,
        0.1574799120426178,
        -0.09882394224405289,
        0.03431795910000801,
        -0.14421947300434113,
        0.025433257222175598,
        -0.144040048122406,
        0.017538178712129593,
        -0.062470726668834686,
        0.12148664891719818,
        0.06594844907522202,
        -0.14770367741584778,
        -0.16556160151958466,
        0.08482605218887329,
        0.05490552634000778,
        -0.041185054928064346,
        0.15157002210617065,
        -0.07222762703895569,
        -0.022051174193620682,
        0.15182343125343323,
        0.10139374434947968,
        0.11177308112382889,
        -0.09575178474187851,
        0.04901077225804329,
        -0.2148614525794983,
        0.06750740855932236,
        -0.0057454658672213554,
        0.18566016852855682,
        0.055019959807395935,
        -0.21351200342178345,
        0.18960891664028168,
        -0.10776551812887192,
        -0.1135111153125763,
        -0.18159621953964233,
        0.07566308230161667,
        0.03217236325144768,
        0.02232898212969303,
        0.005997885949909687,
        0.010585312731564045,
        -0.15125197172164917,
        0.05268651619553566,
        -0.07901321351528168,
        -0.0418439544737339,
        -0.18660101294517517,
        -0.037935711443424225,
        0.11632204055786133,
        0.0720936730504036,
        0.11464396864175797,
        0.048242103308439255,
        0.1181923896074295,
        0.1879810094833374,
        0.18774156272411346,
        0.04901886731386185,
        -0.0946238785982132,
        0.021433470770716667,
        -0.04123596474528313,
        -0.18004754185676575,
        -0.18561376631259918,
        -0.1756662279367447
      ]
    ],
    "supervised.net.2.bias": [
      0.08021512627601624
    ],
    "reinforcement.net.0.weight": [
      [
        -0.21841947734355927,
        0.09825261682271957,
        0.07260776311159134,
        -0.24272730946540833,
        0.066484235227108,
        -0.031722310930490494,
        0.11104702949523926,
        0.1459454596042633,
        -0.28174272179603577
      ],
      [
        0.30600103735923767,
        0.29774555563926697,
        0.10075602680444717,
        -0.30248314142227173,
        -0.13257406651973724,
        -0.08356133848428726,
        -0.08568179607391357,
        0.18604977428913116,
        0.09362035989761353
      ],
      [
        0.22942298650741577,
        -0.0993880033493042,
        0.11462923884391785,
        0.08968137204647064,
        -0.25883719325065613,
        -0.27573344111442566,
        -0.13147111237049103,
        0.19891628623008728,
        -0.26541218161582947
      ],
      [
        -0.25054994225502014,
        0.16105008125305176,
        0.17457926273345947,
        0.2688557803630829,
        -0.20029276609420776,
        -0.2164553850889206,
        0.1781633198261261,
        0.26698461174964905,
        0.1762024164199829
      ],
      [
        0.042308226227760315,
        0.08218532800674438,
        0.28233179450035095,
        -0.18679381906986237,
        -0.1344970464706421,
        0.19448047876358032,
        -0.19881343841552734,
        -0.14734101295471191,
        0.22744585573673248
      ],
      [
        0.1329839527606964,
        0.10417947173118591,
        -0.11018727719783783,
        0.03435470908880234,
        0.32453450560569763,
        -0.22262421250343323,
        0.001076069544069469,
        0.16102048754692078,
        -0.2481434941291809
      ],
      [
        0.285065621137619,
        -0.1383141726255417,
        -0.05354921892285347,
        -0.0786231979727745,
        -0.18770645558834076,
        -0.2795647084712982,
        0.1596306562423706,
        0.07567485421895981,
        -0.2612541913986206
      ],
      [
        -0.18314142525196075,
        0.2857573926448822,
        0.10068252682685852,
        0.11621595919132233,
        -0.17116791009902954,
        -0.12821786105632782,
        -0.04679032415151596,
        -0.039648015052080154,
        -0.18573254346847534
      ],
      [
        0.021400047466158867,
        0.015879115089774132,
        -0.04889247566461563,
        0.06379597634077072,
        -0.11955421417951584,
        0.052249789237976074,
        0.09237954020500183,
        -0.1405962109565735,
        -0.2823173403739929
      ],
      [
        0.13214516639709473,
        0.05828985199332237,
        -0.11088775098323822,
        0.27387699484825134,
        -0.0921708345413208,
        0.1734515130519867,
        0.13871552050113678,
        -0.23252451419830322,
        0.16111117601394653
      ],
      [
        -0.32439345121383667,
        -0.20415978133678436,
        -0.02510172687470913,
        -0.19995859265327454,
        0.3424156904220581,
        -0.04449925199151039,
        0.16104024648666382,
        -0.3230423927307129,
        0.18022789061069489
      ],
      [
        -0.07866016775369644,
        -0.2796986997127533,
        0.07110826671123505,
        0.2001694142818451,
        0.31360769271850586,
        -0.2321198731660843,
        -0.16879478096961975,
        0.06755226105451584,
        0.08197248727083206
      ],
      [
        0.09795907139778137,
        0.15654906630516052,
        -0.10162804275751114,
        0.14167456328868866,
        0.20288459956645966,
        -0.06559348106384277,
        0.20337121188640594,
        0.13900500535964966,
        0.2652059495449066
      ],
      [
        -0.13916324079036713,
        -0.13435354828834534,
        -0.04324992746114731,
        0.05814691632986069,
        0.17295800149440765,
        -0.15489475429058075,
        0.13412567973136902,
        -0.08272171020507812,
        0.15496207773685455
      ],
      [
        -0.010861230082809925,
        -0.2441186010837555,
        -0.13556058704853058,
        -0.19341538846492767,
        0.11766505241394043,
        -0.1739989072084427,
        -0.014672700315713882,
        0.04208507016301155,
        -0.13806451857089996
      ],
      [
        0.08505886048078537,
        -0.2913864850997925,
        -0.19330072402954102,
        -0.2686541974544525,
        -0.06483358889818192,
        -0.09864141792058945,
        0.06285424530506134,
        -0.045944392681121826,
        0.15215347707271576
      ],
      [
        0.3187047243118286,
        0.14774943888187408,
        -0.14156505465507507,
        -0.3099183738231659,
        0.09947118908166885,
        -0.16019044816493988,
        0.17794720828533173,
        0.24408648908138275,
        0.11391925066709518
      ],
      [
        0.26523083448410034,
        0.27073293924331665,
        0.04674764350056648,
        -0.1848771572113037,
        0.25029459595680237,
        -0.12580297887325287,
        -0.1132006123661995,
        0.22989830374717712,
        0.20465926826000214
      ],
      [
        0.09945829212665558,
        0.02067761868238449,
        -0.22687126696109772,
        0.004555733874440193,
        0.2710638642311096,
        0.041630033403635025,
        0.024600783362984657,
        -0.05903814360499382,
        -0.09024931490421295
      ],
      [
        0.1666135936975479,
        0.011105000972747803,
        0.17379812896251678,
        -0.08064519613981247,
        0.10579738765954971,
        0.10337266325950623,
        0.025060785934329033,
        0.18402522802352905,
        0.1833454817533493
      ],
      [
        0.2705083191394806,
        0.21809811890125275,
        -0.060122668743133545,
        -0.24616269767284393,
        0.07759454101324081,
        -0.012343747541308403,
        -0.0636109858751297,
        -0.04321225360035896,
        0.029459847137331963
      ],
      [
        0.22056043148040771,
        0.11177384853363037,
        -0.10765501111745834,
        -0.1260012537240982,
        -0.0812150314450264,
        -0.11422979086637497,
        0.28602486848831177,
        0.16840621829032898,
        0.2667347490787506
      ],
      [
        0.005240641534328461,
        0.0756891742348671,
        0.07625766843557358,
        -0.3202185332775116,
        -0.004111302550882101,
        -0.0150645412504673,
        -0.20006534457206726,
        -0.2709745764732361,
        0.2675017714500427
      ],
      [
        0.2585799992084503,
        0.15975803136825562,
        0.3205193281173706,
        -0.11387927085161209,
        -0.026331016793847084,
        0.16372886300086975,
        -0.006040835753083229,
        -0.07750660926103592,
        -0.276766836643219
      ],
      [
        0.06482400000095367,
        -0.16644711792469025,
        -0.01249674055725336,
        0.2819402813911438,
        -0.12788726389408112,
        -0.08152220398187637,
        0.17069852352142334,
        -0.09937788546085358,
        -0.015289274975657463
      ],
      [
        0.3245694637298584,
        -0.14536738395690918,
        -0.26502397656440735,
        -0.1844715178012848,
        -0.10945815593004227,
        -0.1878722906112671,
        -0.20386476814746857,
        0.13731804490089417,
        0.03798791766166687
      ],
      [
        -0.07416386157274246,
        -0.21228298544883728,
        -0.0761573314666748,
        -0.10956286638975143,
        -0.08025269210338593,
        -0.25510257482528687,
        0.04640527442097664,
        -0.19689832627773285,
        -0.21543368697166443
      ],
      [
        -0.22952747344970703,
        0.10609893500804901,
        -0.2109055519104004,
        -0.11799788475036621,
        0.23638121783733368,
        0.13582073152065277,
        0.1523861289024353,
        -0.2738387882709503,
        -0.19441407918930054
      ],
      [
        -0.10633735358715057,
        0.2390143722295761,
        0.056908927857875824,
        -0.2162749469280243,
        0.02433096431195736,
        -0.22359870374202728,
        -0.04289649799466133,
        -0.07010283321142197,
        0.2580580413341522
      ],
      [
        0.09295874834060669,
        -0.05742616206407547,
        0.09251664578914642,
        -0.06935867667198181,
        0.16214118897914886,
        0.15815645456314087,
        0.11793559044599533,
        -0.13820666074752808,
        0.29465630650520325
      ],
      [
        -0.013274027965962887,
        -0.092677041888237,
        0.188357412815094,
        0.2466590255498886,
        0.297944039106369,
        0.057412732392549515,
        -0.05749671533703804,
        0.12030163407325745,
        0.23119132220745087
      ],
      [
        -0.2765355706214905,
        -0.024600710719823837,
        -0.1768733561038971,
        0.03715924918651581,
        0.0970979630947113,
        -0.040358539670705795,
        -0.021732240915298462,
        0.11008890718221664,
        -0.03912822902202606
      ]
    ],
    "reinforcement.net.0.bias": [
      -0.22875089943408966,
      0.31367048621177673,
      -0.20820218324661255,
      0.01591195911169052,
      -0.009393340907990932,
      0.030584705993533134,
      -0.3275495171546936,
      0.11036982387304306,
      -0.19070756435394287,
      -0.11242726445198059,
      0.1314375102519989,
      -0.12318152189254761,
      -0.18693707883358002,
      -0.051904357969760895,
      -0.09183569252490997,
      -0.1790829449892044,
      -0.04269775375723839,
      0.11826851963996887,
      -0.21298429369926453,
      -0.21974687278270721,
      -0.03491715341806412,
      0.09378812462091446,
      0.23359914124011993,
      -0.17940004169940948,
      0.06055194139480591,
      0.2384495586156845,
      0.14691457152366638,
      -0.33499839901924133,
      -0.15695981681346893,
      -0.24174952507019043,
      -0.14928141236305237,
      0.1520899534225464
    ],
    "reinforcement.net.2.weight": [
      [
        0.0136899808421731,
        0.11715458333492279,
        -0.06086046248674393,
        0.0685015469789505,
        -0.06975717842578888,
        0.1351567655801773,
        -0.03362961858510971,
        0.002142638899385929,
        -0.11206912994384766,
        0.03915606439113617,
        0.21661227941513062,
        0.13180504739284515,
        -0.05428898707032204,
        0.04632348194718361,
        0.02153712324798107,
        -0.10677725821733475,
        0.17564727365970612,
        0.04134314879775047,
        0.056787729263305664,
        -0.03715578094124794,
        -0.04401881620287895,
        0.06798373907804489,
        0.1095665991306305,
        0.08485553413629532,
        -0.03925584256649017,
        0.21984611451625824,
        0.01654600352048874,
        -0.06810945272445679,
        -0.05276206135749817,
        0.2040185183286667,
        0.04224363714456558,
        0.022166267037391663
      ]
    ],
    "reinforcement.net.2.bias": [
      -0.022395078092813492
    ]
  }
}